{"learner":{"attributes":{},"feature_names":["catboost_prob","consistency_diff","elo_diff","elo_prob","kalman_away_def","kalman_away_gain","kalman_away_off","kalman_away_uncertainty","kalman_home_def","kalman_home_gain","kalman_home_off","kalman_home_uncertainty","kalman_prob","kalman_strength_diff","lgbm_prob","margin_diff","mlp_prob","papg_diff","ppg_diff","streak_diff","trend_diff","win_pct_diff"],"feature_types":[],"gradient_booster":{"model":{"cats":{"enc":[],"feature_segments":[],"sorted_idx":[]},"gbtree_model_param":{"num_parallel_tree":"1","num_trees":"200"},"iteration_indptr":[0,1,2,3,4,5,6,7,8,9,10,11,12,13,14,15,16,17,18,19,20,21,22,23,24,25,26,27,28,29,30,31,32,33,34,35,36,37,38,39,40,41,42,43,44,45,46,47,48,49,50,51,52,53,54,55,56,57,58,59,60,61,62,63,64,65,66,67,68,69,70,71,72,73,74,75,76,77,78,79,80,81,82,83,84,85,86,87,88,89,90,91,92,93,94,95,96,97,98,99,100,101,102,103,104,105,106,107,108,109,110,111,112,113,114,115,116,117,118,119,120,121,122,123,124,125,126,127,128,129,130,131,132,133,134,135,136,137,138,139,140,141,142,143,144,145,146,147,148,149,150,151,152,153,154,155,156,157,158,159,160,161,162,163,164,165,166,167,168,169,170,171,172,173,174,175,176,177,178,179,180,181,182,183,184,185,186,187,188,189,190,191,192,193,194,195,196,197,198,199,200],"tree_info":[0,0,0,0,0,0,0,0,0,0,0,0,0,0,0,0,0,0,0,0,0,0,0,0,0,0,0,0,0,0,0,0,0,0,0,0,0,0,0,0,0,0,0,0,0,0,0,0,0,0,0,0,0,0,0,0,0,0,0,0,0,0,0,0,0,0,0,0,0,0,0,0,0,0,0,0,0,0,0,0,0,0,0,0,0,0,0,0,0,0,0,0,0,0,0,0,0,0,0,0,0,0,0,0,0,0,0,0,0,0,0,0,0,0,0,0,0,0,0,0,0,0,0,0,0,0,0,0,0,0,0,0,0,0,0,0,0,0,0,0,0,0,0,0,0,0,0,0,0,0,0,0,0,0,0,0,0,0,0,0,0,0,0,0,0,0,0,0,0,0,0,0,0,0,0,0,0,0,0,0,0,0,0,0,0,0,0,0,0,0,0,0,0,0,0,0,0,0,0,0],"trees":[{"base_weights":[1.7356528E-2,-1.6548346E-1,2.0719805E-1,-5.7580906E-1,-1.1276425E-1,1.6393158E-1,6.963904E-1,8.861327E-3,-6.579425E-1,-2.528756E-1,-1.2778748E-2,7.1902275E-2,3.1523633E-1,9.119107E-1,-2.2859663E-2,-3.636187E-2,-0E0,1.6953364E-2,-1.4220543E-2,-2.8446964E-3,2.1507353E-2,5.486953E-3,-2.6024938E-2,1.8330125E-2,-1.7144341E-2,3.2353853E-3,5.3908836E-2],"categories":[],"categories_nodes":[],"categories_segments":[],"categories_sizes":[],"default_left":[0,0,0,0,0,0,0,0,0,0,0,0,0,0,0,0,0,0,0,0,0,0,0,0,0,0,0],"id":0,"left_children":[1,3,5,7,9,11,13,-1,15,17,19,21,23,25,-1,-1,-1,-1,-1,-1,-1,-1,-1,-1,-1,-1,-1],"loss_changes":[4.0655853E1,1.2462872E1,1.1639538E1,4.4652977E0,7.2834773E0,7.179261E0,1.1963652E1,0E0,2.9322338E0,4.1463575E0,5.938219E0,7.329162E0,6.848526E0,4.8609467E0,0E0,0E0,0E0,0E0,0E0,0E0,0E0,0E0,0E0,0E0,0E0,0E0,0E0],"parents":[2147483647,0,0,1,1,2,2,3,3,4,4,5,5,6,6,8,8,9,9,10,10,11,11,12,12,13,13],"right_children":[2,4,6,8,10,12,14,-1,16,18,20,22,24,26,-1,-1,-1,-1,-1,-1,-1,-1,-1,-1,-1,-1,-1],"split_conditions":[1.857027E0,-6.1068E1,7.9058136E1,-7.3333335E-1,3.4002487E2,1.3333334E0,7.815249E2,8.861327E-3,1.6529611E-1,-7E0,2.1333334E0,6E0,1.6558181E-1,-2.6190478E-1,-2.2859663E-2,-3.636187E-2,-0E0,1.6953364E-2,-1.4220543E-2,-2.8446964E-3,2.1507353E-2,5.486953E-3,-2.6024938E-2,1.8330125E-2,-1.7144341E-2,3.2353853E-3,5.3908836E-2],"split_indices":[2,2,2,17,11,15,7,0,5,19,15,19,9,20,0,0,0,0,0,0,0,0,0,0,0,0,0],"split_type":[0,0,0,0,0,0,0,0,0,0,0,0,0,0,0,0,0,0,0,0,0,0,0,0,0,0,0],"sum_hessian":[1.168691E3,5.940473E2,5.7464374E2,6.542481E1,5.286225E2,5.301151E2,4.452867E1,5.7215614E0,5.9703247E1,2.1741933E2,3.112032E2,3.3259683E2,1.9751825E2,3.806082E1,6.4678516E0,5.423045E1,5.472798E0,9.701777E0,2.0771754E2,2.8483423E2,2.6368935E1,3.1418835E2,1.84085E1,1.8433377E2,1.3184467E1,6.9653788E0,3.1095442E1],"tree_param":{"num_deleted":"0","num_feature":"22","num_nodes":"27","size_leaf_vector":"1"}},{"base_weights":[1.2866296E-2,-8.606499E-2,3.051718E-1,-6.854389E-2,-7.402215E-1,3.4564385E-1,-4.6183148E-1,-2.64389E-1,-1.9469751E-2,-1.0286384E0,-1.1029641E-2,3.9904487E-1,-6.2547E-2,-2.6019241E-3,-4.046688E-2,-1.4109588E-3,-2.7880678E-2,1.64359E-2,-2.1357113E-3,-6.901126E-2,-2.0524751E-2,2.1349886E-2,-2.2387683E-2,3.6854595E-2,-1.5401288E-2],"categories":[],"categories_nodes":[],"categories_segments":[],"categories_sizes":[],"default_left":[0,0,0,0,0,0,0,0,0,0,0,0,0,0,0,0,0,0,0,0,0,0,0,0,0],"id":1,"left_children":[1,3,5,7,9,11,13,15,17,19,-1,21,23,-1,-1,-1,-1,-1,-1,-1,-1,-1,-1,-1,-1],"loss_changes":[3.3921E1,9.543686E0,9.3187275E0,8.036331E0,2.432125E0,6.3670807E0,1.6193066E0,1.1359182E1,5.4068084E0,1.4063759E0,0E0,6.138302E0,6.4015446E0,0E0,0E0,0E0,0E0,0E0,0E0,0E0,0E0,0E0,0E0,0E0,0E0],"parents":[2147483647,0,0,1,1,2,2,3,3,4,4,5,5,6,6,7,7,8,8,9,9,11,11,12,12],"right_children":[2,4,6,8,10,12,14,16,18,20,-1,22,24,-1,-1,-1,-1,-1,-1,-1,-1,-1,-1,-1,-1],"split_conditions":[1.3333334E0,7E0,1.6593434E-1,-1.3333334E0,4.6052487E2,2.4666667E0,2.7755576E-17,2.7755576E-17,-2.5333333E0,5.3329945E-1,-1.1029641E-2,7.4358976E-1,2.8652487E2,-2.6019241E-3,-4.046688E-2,-1.4109588E-3,-2.7880678E-2,1.64359E-2,-2.1357113E-3,-6.901126E-2,-2.0524751E-2,2.1349886E-2,-2.2387683E-2,3.6854595E-2,-1.5401288E-2],"split_indices":[15,19,5,18,7,18,20,20,15,1,0,20,7,0,0,0,0,0,0,0,0,0,0,0,0],"split_type":[0,0,0,0,0,0,0,0,0,0,0,0,0,0,0,0,0,0,0,0,0,0,0,0,0],"sum_hessian":[1.1673035E3,8.7137885E2,2.9592462E2,8.5046875E2,2.091005E1,2.822334E2,1.3691217E1,1.6748666E2,6.829821E2,1.2197891E1,8.712157E0,2.5068515E2,3.1548235E1,7.4703984E0,6.220819E0,9.432032E1,7.316634E1,4.057291E1,6.424092E2,6.4739285E0,5.723963E0,2.4372597E2,6.9591894E0,6.4612904E0,2.5086945E1],"tree_param":{"num_deleted":"0","num_feature":"22","num_nodes":"25","size_leaf_vector":"1"}},{"base_weights":[-1.5778234E-2,-1.7290622E-1,2.138807E-1,-5.004768E-1,-9.595149E-2,9.8479204E-2,4.2290214E-1,-6.8902755E-1,-2.6403764E-1,-4.477025E-1,-5.9855554E-2,5.1141042E-2,6.254051E-1,6.3284296E-1,1.4480284E-1,-1.1839321E-2,-4.4528287E-2,1.491512E-3,-2.2057405E-2,1.3270422E-3,-3.8465045E-2,2.6284238E-2,-3.961194E-3,1.8228786E-2,-1.556749E-3,5.1995274E-2,1.7786485E-3,1.5605505E-3,3.5372265E-2,3.8889028E-2,-5.6111225E-4],"categories":[],"categories_nodes":[],"categories_segments":[],"categories_sizes":[],"default_left":[0,0,0,0,0,0,0,0,0,0,0,0,0,0,0,0,0,0,0,0,0,0,0,0,0,0,0,0,0,0,0],"id":2,"left_children":[1,3,5,7,9,11,13,15,17,19,21,23,25,27,29,-1,-1,-1,-1,-1,-1,-1,-1,-1,-1,-1,-1,-1,-1,-1,-1],"loss_changes":[4.2465466E1,1.7307154E1,1.1204214E1,5.215027E0,6.9509616E0,7.366951E0,9.318771E0,5.7422066E0,3.4066787E0,8.2560835E0,5.7042837E0,7.568365E0,5.4420147E0,3.841919E0,7.7517424E0,0E0,0E0,0E0,0E0,0E0,0E0,0E0,0E0,0E0,0E0,0E0,0E0,0E0,0E0,0E0,0E0],"parents":[2147483647,0,0,1,1,2,2,3,3,4,4,5,5,6,6,7,7,8,8,9,9,10,10,11,11,12,12,13,13,14,14],"right_children":[2,4,6,8,10,12,14,16,18,20,22,24,26,28,30,-1,-1,-1,-1,-1,-1,-1,-1,-1,-1,-1,-1,-1,-1,-1,-1],"split_conditions":[5.493669E-1,4.5967275E-1,3.8536686E1,-5.879121E-1,-1.8E0,1.6908506E0,4.5652487E2,-1.1861528E0,-3.7097448E-1,-2.5454545E0,-1.9383335E0,-5.908363E-1,3.8902487E2,-5E-1,-1.6666666E0,-1.1839321E-2,-4.4528287E-2,1.491512E-3,-2.2057405E-2,1.3270422E-3,-3.8465045E-2,2.6284238E-2,-3.961194E-3,1.8228786E-2,-1.556749E-3,5.1995274E-2,1.7786485E-3,1.5605505E-3,3.5372265E-2,3.8889028E-2,-5.6111225E-4],"split_indices":[3,3,2,18,18,1,11,4,4,18,8,4,7,18,17,0,0,0,0,0,0,0,0,0,0,0,0,0,0,0,0],"split_type":[0,0,0,0,0,0,0,0,0,0,0,0,0,0,0,0,0,0,0,0,0,0,0,0,0,0,0,0,0,0,0],"sum_hessian":[1.1753329E3,6.993061E2,4.760268E2,1.3074928E2,5.685568E2,3.0918686E2,1.6683995E2,7.049971E1,6.0249577E1,5.0563713E1,5.179931E2,2.8557703E2,2.360982E1,9.331883E1,7.3521126E1,2.3167917E1,4.733179E1,2.1907822E1,3.8341755E1,2.01752E1,3.0388515E1,1.4921828E1,5.030713E2,5.9927216E1,2.2564981E2,1.2919782E1,1.0690038E1,1.1190819E1,8.212801E1,1.4384467E1,5.9136658E1],"tree_param":{"num_deleted":"0","num_feature":"22","num_nodes":"31","size_leaf_vector":"1"}},{"base_weights":[-0E0,-1.5553004E-1,2.2882819E-1,-5.222289E-1,-7.841454E-2,1.9757104E-1,7.7339107E-1,-7.801253E-1,-3.8622636E-1,-1.8955885E-1,2.2146313E-2,1.5427342E-1,6.2889427E-1,5.1483747E-2,-0E0,-5.9843543E-3,-4.8431512E-2,-2.4735127E-2,-1.7049896E-4,-2.7397075E-3,-1.5960114E-2,-1.336644E-2,5.999278E-3,1.0398558E-2,-7.934721E-3,-2.7510372E-3,3.763279E-2],"categories":[],"categories_nodes":[],"categories_segments":[],"categories_sizes":[],"default_left":[0,0,0,0,0,0,0,0,0,0,0,0,0,0,0,0,0,0,0,0,0,0,0,0,0,0,0],"id":3,"left_children":[1,3,5,7,9,11,13,15,17,19,21,23,25,-1,-1,-1,-1,-1,-1,-1,-1,-1,-1,-1,-1,-1,-1],"loss_changes":[4.2068718E1,1.9513718E1,7.5159492E0,3.348896E0,6.5976458E0,8.013531E0,5.405553E0,4.2479515E0,3.1657677E0,4.6722136E0,8.577069E0,7.0506287E0,3.7888794E0,0E0,0E0,0E0,0E0,0E0,0E0,0E0,0E0,0E0,0E0,0E0,0E0,0E0,0E0],"parents":[2147483647,0,0,1,1,2,2,3,3,4,4,5,5,6,6,7,7,8,8,9,9,10,10,11,11,12,12],"right_children":[2,4,6,8,10,12,14,16,18,20,22,24,26,-1,-1,-1,-1,-1,-1,-1,-1,-1,-1,-1,-1,-1,-1],"split_conditions":[5.493669E-1,4.5520374E-1,4.1666666E-1,4.1013736E-1,3.6152487E2,1.6908506E0,7.0853174E2,3.7078905E-1,7.377749E2,-1.9414376E-1,-9.960278E-1,1.6529603E-1,-1.4666667E0,5.1483747E-2,-0E0,-5.9843543E-3,-4.8431512E-2,-2.4735127E-2,-1.7049896E-4,-2.7397075E-3,-1.5960114E-2,-1.336644E-2,5.999278E-3,1.0398558E-2,-7.934721E-3,-2.7510372E-3,3.763279E-2],"split_indices":[3,3,21,3,7,1,7,3,7,10,1,5,18,0,0,0,0,0,0,0,0,0,0,0,0,0,0],"split_type":[0,0,0,0,0,0,0,0,0,0,0,0,0,0,0,0,0,0,0,0,0,0,0,0,0,0,0],"sum_hessian":[1.1791866E3,7.0113165E2,4.78055E2,1.19696434E2,5.814352E2,4.5426193E2,2.379304E1,3.8423306E1,8.1273125E1,2.7812558E2,3.0330963E2,4.151089E2,3.915307E1,1.8085577E1,5.7074633E0,9.483763E0,2.893954E1,6.208276E1,1.9190369E1,1.3895787E2,1.3916771E2,7.489033E1,2.2841931E2,3.5596667E2,5.9142212E1,5.4655347E0,3.3687534E1],"tree_param":{"num_deleted":"0","num_feature":"22","num_nodes":"27","size_leaf_vector":"1"}},{"base_weights":[3.2682288E-3,-1.3913077E-1,1.9214241E-1,-4.9843627E-1,-8.7035805E-2,1.5779631E-1,5.7129925E-1,-9.414969E-1,-2.3584062E-1,-5.943219E-1,-5.753159E-2,2.1797481E-1,-8.476195E-2,-6.2706033E-3,7.157012E-1,-5.3298183E-2,-1.088026E-2,-3.667528E-2,-0E0,-0E0,-3.9538693E-2,6.3298787E-3,-6.31029E-3,4.3572774E-3,1.5329349E-2,-1.3128306E-2,1.2936021E-2,-0E0,4.294249E-2],"categories":[],"categories_nodes":[],"categories_segments":[],"categories_sizes":[],"default_left":[0,0,0,0,0,0,0,0,0,0,0,0,0,0,0,0,0,0,0,0,0,0,0,0,0,0,0,0,0],"id":4,"left_children":[1,3,5,7,9,11,13,15,17,19,21,23,25,-1,27,-1,-1,-1,-1,-1,-1,-1,-1,-1,-1,-1,-1,-1,-1],"loss_changes":[3.1668413E1,1.2191237E1,6.1505375E0,8.883373E0,8.424751E0,6.911644E0,4.463401E0,1.825985E0,6.2343216E0,3.655119E0,7.0555134E0,4.142849E0,5.690592E0,0E0,3.1643066E0,0E0,0E0,0E0,0E0,0E0,0E0,0E0,0E0,0E0,0E0,0E0,0E0,0E0,0E0],"parents":[2147483647,0,0,1,1,2,2,3,3,4,4,5,5,6,6,7,7,8,8,9,9,10,10,11,11,12,12,14,14],"right_children":[2,4,6,8,10,12,14,16,18,20,22,24,26,-1,28,-1,-1,-1,-1,-1,-1,-1,-1,-1,-1,-1,-1,-1,-1],"split_conditions":[5.4451424E-1,-1.7333333E0,1.6908506E0,-3.814082E1,4.1013736E-1,8.4702384E-1,-1.4444444E0,4.6402487E2,-5E-1,-8.41939E-1,-4.6666667E-1,2.6666668E-1,3.7101616E1,-6.2706033E-3,5.576768E-1,-5.3298183E-2,-1.088026E-2,-3.667528E-2,-0E0,-0E0,-3.9538693E-2,6.3298787E-3,-6.31029E-3,4.3572774E-3,1.5329349E-2,-1.3128306E-2,1.2936021E-2,-0E0,4.294249E-2],"split_indices":[3,18,1,2,3,1,18,7,17,4,17,18,2,0,3,0,0,0,0,0,0,0,0,0,0,0,0,0,0],"split_type":[0,0,0,0,0,0,0,0,0,0,0,0,0,0,0,0,0,0,0,0,0,0,0,0,0,0,0,0,0],"sum_hessian":[1.1744822E3,6.682675E2,5.062147E2,8.232133E1,5.859462E2,4.6667554E2,3.9539135E1,2.8963564E1,5.335777E1,3.022235E1,5.557239E2,3.756418E2,9.1033714E1,6.216187E0,3.332295E1,2.3721594E1,5.2419705E0,1.620673E1,3.715104E1,7.741001E0,2.2481348E1,1.4875584E2,4.0696802E2,1.5476656E2,2.2087527E2,6.1097668E1,2.9936047E1,6.198158E0,2.712479E1],"tree_param":{"num_deleted":"0","num_feature":"22","num_nodes":"29","size_leaf_vector":"1"}},{"base_weights":[2.10542E-2,-1.21017575E-1,2.3163557E-1,-4.4199267E-1,-5.7448126E-2,2.8048775E-1,-3.3133313E-2,1.1605292E-2,-4.9606997E-1,-3.6880523E-2,-6.8978477E-1,3.662887E-2,3.2822296E-1,-2.0423645E-1,8.0475557E-1,-0E0,-2.6805578E-2,-3.637511E-3,1.0371898E-2,-0E0,-5.244369E-2,1.9109428E-2,-9.767129E-3,1.8746397E-2,-1.5706882E-3,2.1636693E-2,-1.974078E-2,5.891263E-2,8.9148395E-3],"categories":[],"categories_nodes":[],"categories_segments":[],"categories_sizes":[],"default_left":[0,0,0,0,0,0,0,0,0,0,0,0,0,0,0,0,0,0,0,0,0,0,0,0,0,0,0,0,0],"id":5,"left_children":[1,3,5,7,9,11,13,-1,15,17,19,21,23,25,27,-1,-1,-1,-1,-1,-1,-1,-1,-1,-1,-1,-1,-1,-1],"loss_changes":[3.5217667E1,1.4017922E1,6.2752323E0,4.4155617E0,7.247423E0,4.492115E0,1.036851E1,0E0,2.191082E0,4.947141E0,4.4735384E0,5.6789303E0,5.8080254E0,7.695058E0,1.9502759E0,0E0,0E0,0E0,0E0,0E0,0E0,0E0,0E0,0E0,0E0,0E0,0E0,0E0,0E0],"parents":[2147483647,0,0,1,1,2,2,3,3,4,4,5,5,6,6,8,8,9,9,10,10,11,11,12,12,13,13,14,14],"right_children":[2,4,6,8,10,12,14,-1,16,18,20,22,24,26,28,-1,-1,-1,-1,-1,-1,-1,-1,-1,-1,-1,-1,-1,-1],"split_conditions":[5.493669E-1,4.5520374E-1,1.6529603E-1,-1.993994E0,2.2E0,-7.1428573E-1,2.7333333E0,1.1605292E-2,3.7078905E-1,1.4666667E0,-1.2605832E0,4.5065212E-1,5.555556E-1,-1.0666667E0,1.6535337E-1,-0E0,-2.6805578E-2,-3.637511E-3,1.0371898E-2,-0E0,-5.244369E-2,1.9109428E-2,-9.767129E-3,1.8746397E-2,-1.5706882E-3,2.1636693E-2,-1.974078E-2,5.891263E-2,8.9148395E-3],"split_indices":[3,3,5,1,18,18,15,0,3,15,8,1,20,15,9,0,0,0,0,0,0,0,0,0,0,0,0,0,0],"split_type":[0,0,0,0,0,0,0,0,0,0,0,0,0,0,0,0,0,0,0,0,0,0,0,0,0,0,0,0,0],"sum_hessian":[1.1733672E3,6.994942E2,4.7387296E2,1.1334977E2,5.861444E2,4.0160278E2,7.227017E1,7.4866824E0,1.0586309E2,5.6947064E2,1.6673761E1,6.774813E1,3.3385464E2,6.113827E1,1.1131903E1,7.7434487E0,9.811964E1,4.9896384E2,7.05068E1,5.9636045E0,1.0710157E1,2.7817402E1,3.993073E1,2.9667422E2,3.718044E1,1.3182929E1,4.7955345E1,5.9221463E0,5.209757E0],"tree_param":{"num_deleted":"0","num_feature":"22","num_nodes":"29","size_leaf_vector":"1"}},{"base_weights":[-5.3256677E-5,-1.391919E-1,1.3967049E-1,-5.379481E-1,-8.2839236E-2,9.3338355E-2,5.603173E-1,-3.3016482E-1,-1.0313704E0,-1.1399185E-1,3.5367197E-1,2.9192314E-1,2.9956901E-2,7.5576603E-1,-2.3555955E-2,7.801214E-3,-2.5338287E-2,-6.899359E-2,-3.621292E-2,-4.35419E-3,-3.9538063E-2,6.5801195E-3,5.5552483E-2,-8.48636E-3,1.8453019E-2,-1.750475E-2,3.1474342E-3,1.3991003E-2,4.4887707E-2],"categories":[],"categories_nodes":[],"categories_segments":[],"categories_sizes":[],"default_left":[0,0,0,0,0,0,0,0,0,0,0,0,0,0,0,0,0,0,0,0,0,0,0,0,0,0,0,0,0],"id":6,"left_children":[1,3,5,7,9,11,13,15,17,19,21,23,25,27,-1,-1,-1,-1,-1,-1,-1,-1,-1,-1,-1,-1,-1,-1,-1],"loss_changes":[2.2721195E1,1.2844241E1,1.0951092E1,6.304241E0,6.950032E0,6.450129E0,1.18700695E1,4.758945E0,8.792305E-2,8.312092E0,4.885258E0,4.6216593E0,4.915413E0,2.4182682E0,0E0,0E0,0E0,0E0,0E0,0E0,0E0,0E0,0E0,0E0,0E0,0E0,0E0,0E0,0E0],"parents":[2147483647,0,0,1,1,2,2,3,3,4,4,5,5,6,6,7,7,8,8,9,9,10,10,11,11,12,12,13,13],"right_children":[2,4,6,8,10,12,14,16,18,20,22,24,26,28,-1,-1,-1,-1,-1,-1,-1,-1,-1,-1,-1,-1,-1,-1,-1],"split_conditions":[5.319557E-1,-6.1068E1,6.95056E1,1.1933712E0,7.910249E2,2.7902792E2,7.815249E2,-7.215155E-1,3.8152487E2,7.772749E2,1.5333333E0,1.1302558E2,3.0002487E2,-1.904762E-1,-2.3555955E-2,7.801214E-3,-2.5338287E-2,-6.899359E-2,-3.621292E-2,-4.35419E-3,-3.9538063E-2,6.5801195E-3,5.5552483E-2,-8.48636E-3,1.8453019E-2,-1.750475E-2,3.1474342E-3,1.3991003E-2,4.4887707E-2],"split_indices":[2,2,2,8,7,11,7,1,7,7,17,7,11,20,0,0,0,0,0,0,0,0,0,0,0,0,0,0,0],"split_type":[0,0,0,0,0,0,0,0,0,0,0,0,0,0,0,0,0,0,0,0,0,0,0,0,0,0,0,0,0],"sum_hessian":[1.1667397E3,5.863888E2,5.8035095E2,7.0451225E1,5.1593756E2,5.249418E2,5.540916E1,5.1462505E1,1.898872E1,4.8332803E2,3.2609505E1,1.2422606E2,4.0071573E2,4.721444E1,8.194721E0,1.2988886E1,3.847362E1,6.4960613E0,1.249266E1,4.6664203E2,1.6685997E1,2.6634094E1,5.975409E0,1.668536E1,1.075407E2,3.0028837E1,3.706869E2,1.23406315E1,3.487381E1],"tree_param":{"num_deleted":"0","num_feature":"22","num_nodes":"29","size_leaf_vector":"1"}},{"base_weights":[-1.5129837E-2,-3.1971174E-1,8.508781E-2,-3.527444E-1,4.0484634E-1,1.0874407E-2,3.0747873E-1,-4.0710187E-1,1.0434834E-1,5.4309703E-2,-1.4382771E-2,1.0658077E-1,-7.4907646E-2,1.4805542E-1,4.9062857E-1,-2.5368912E-2,-1.2305926E-2,-1.6516728E-2,2.4281507E-2,9.1410073E-4,1.9484455E-2,-5.1251063E-3,3.316573E-2,1.20157255E-2,-1.8606683E-2,1.938049E-3,2.9734144E-2],"categories":[],"categories_nodes":[],"categories_segments":[],"categories_sizes":[],"default_left":[0,0,0,0,0,0,0,0,0,0,0,0,0,0,0,0,0,0,0,0,0,0,0,0,0,0,0],"id":7,"left_children":[1,3,5,7,9,11,13,15,17,-1,-1,19,21,23,25,-1,-1,-1,-1,-1,-1,-1,-1,-1,-1,-1,-1],"loss_changes":[3.6343456E1,7.178335E0,1.4557018E1,7.234638E0,6.689932E0,5.536162E0,6.0733833E0,3.6057053E0,5.1994734E0,0E0,0E0,7.8013735E0,6.9561644E0,5.8437366E0,4.416399E0,0E0,0E0,0E0,0E0,0E0,0E0,0E0,0E0,0E0,0E0,0E0,0E0],"parents":[2147483647,0,0,1,1,2,2,3,3,4,4,5,5,6,6,7,7,8,8,11,11,12,12,13,13,14,14],"right_children":[2,4,6,8,10,12,14,16,18,-1,-1,20,22,24,26,-1,-1,-1,-1,-1,-1,-1,-1,-1,-1,-1,-1],"split_conditions":[4.9349698E-1,2.1333334E0,5.888493E-1,1.6529611E-1,2.6666667E0,-8.437667E-2,1.6E0,4.4002487E2,1.759637E-1,5.4309703E-2,-1.4382771E-2,-5.3166324E-1,8.032749E2,3.6693332E0,-1.0887626E0,-2.5368912E-2,-1.2305926E-2,-1.6516728E-2,2.4281507E-2,9.1410073E-4,1.9484455E-2,-5.1251063E-3,3.316573E-2,1.20157255E-2,-1.8606683E-2,1.938049E-3,2.9734144E-2],"split_indices":[3,15,3,9,15,4,15,11,8,0,0,13,7,13,1,0,0,0,0,0,0,0,0,0,0,0,0],"split_type":[0,0,0,0,0,0,0,0,0,0,0,0,0,0,0,0,0,0,0,0,0,0,0,0,0,0,0],"sum_hessian":[1.1848987E3,2.940425E2,8.908562E2,2.8237234E2,1.1670147E1,6.704272E2,2.2042905E2,2.5343689E2,2.8935467E1,5.9598274E0,5.71032E0,3.1952353E2,3.5090366E2,1.2027431E2,1.0015473E2,1.5292342E2,1.0051346E2,1.2970553E1,1.5964913E1,2.4571733E2,7.380619E1,3.3974265E2,1.1161003E1,1.0342958E2,1.6844728E1,1.99027E1,8.025203E1],"tree_param":{"num_deleted":"0","num_feature":"22","num_nodes":"27","size_leaf_vector":"1"}},{"base_weights":[1.3244613E-2,-1.2810682E-1,1.6723482E-1,-4.2561218E-1,-6.554776E-2,1.15280576E-1,5.037634E-1,-7.490071E-1,-2.2869687E-1,5.641528E-2,-1.8922721E-1,1.6294743E-1,-3.07854E-1,-1.6750136E-1,6.4506453E-1,-9.202368E-3,-4.467175E-2,-1.5112318E-2,2.3041407E-2,-1.7356165E-4,1.8831387E-2,-3.7906166E-2,-7.106813E-3,3.939825E-2,6.833285E-3,-3.286001E-2,3.5778426E-3,-3.0940136E-2,1.2757515E-2,3.8463946E-2,-1.7047549E-3],"categories":[],"categories_nodes":[],"categories_segments":[],"categories_sizes":[],"default_left":[0,0,0,0,0,0,0,0,0,0,0,0,0,0,0,0,0,0,0,0,0,0,0,0,0,0,0,0,0,0,0],"id":8,"left_children":[1,3,5,7,9,11,13,15,17,19,21,23,25,27,29,-1,-1,-1,-1,-1,-1,-1,-1,-1,-1,-1,-1,-1,-1,-1,-1],"loss_changes":[2.56098E1,1.1104654E1,9.499184E0,6.003908E0,7.7353544E0,9.889841E0,7.355095E0,2.4141045E0,3.4803088E0,5.0655475E0,6.255851E0,6.713541E0,6.8399825E0,2.8245633E0,5.612444E0,0E0,0E0,0E0,0E0,0E0,0E0,0E0,0E0,0E0,0E0,0E0,0E0,0E0,0E0,0E0,0E0],"parents":[2147483647,0,0,1,1,2,2,3,3,4,4,5,5,6,6,7,7,8,8,9,9,10,10,11,11,12,12,13,13,14,14],"right_children":[2,4,6,8,10,12,14,16,18,20,22,24,26,28,30,-1,-1,-1,-1,-1,-1,-1,-1,-1,-1,-1,-1,-1,-1,-1,-1],"split_conditions":[1.3333334E-1,4.5843953E-1,6.240934E-1,-1.375E0,-3.5989067E-1,7E0,-8.3333336E-2,1.3333334E-1,1.9657751E0,5.678513E-1,-1.8388215E0,1.8181819E-1,2.820513E-1,3E0,7.790249E2,-9.202368E-3,-4.467175E-2,-1.5112318E-2,2.3041407E-2,-1.7356165E-4,1.8831387E-2,-3.7906166E-2,-7.106813E-3,3.939825E-2,6.833285E-3,-3.286001E-2,3.5778426E-3,-3.0940136E-2,1.2757515E-2,3.8463946E-2,-1.7047549E-3],"split_indices":[15,3,3,18,10,19,18,17,8,3,1,15,21,19,11,0,0,0,0,0,0,0,0,0,0,0,0,0,0,0,0],"split_type":[0,0,0,0,0,0,0,0,0,0,0,0,0,0,0,0,0,0,0,0,0,0,0,0,0,0,0,0,0,0,0],"sum_hessian":[1.1736736E3,6.103444E2,5.633291E2,1.0364679E2,5.0669763E2,4.9044165E2,7.288749E1,3.7203857E1,6.644293E1,2.5335744E2,2.533402E2,4.4240094E2,4.8040688E1,1.2027193E1,6.0860294E1,8.742401E0,2.8461458E1,6.120155E1,5.2413836E0,2.1295757E2,4.039987E1,1.7401333E1,2.3593886E2,1.5914926E1,4.2648602E2,2.5316214E1,2.2724474E1,6.164132E0,5.8630605E0,5.196052E1,8.899771E0],"tree_param":{"num_deleted":"0","num_feature":"22","num_nodes":"31","size_leaf_vector":"1"}},{"base_weights":[6.8751797E-3,-3.5472503E-1,5.7020247E-2,8.468249E-3,-4.4997194E-1,-5.1470913E-2,1.4260891E-1,-1.9850862E-1,2.68544E-2,-9.114172E-1,-3.0467832E-1,-2.550853E-1,2.8531937E-2,1.00929774E-1,4.32055E-1,-2.7924633E-2,1.375383E-2,-1.4711562E-2,-5.650539E-2,2.3168294E-2,-1.9230923E-2,-1.6573427E-2,9.947937E-3,-1.6851412E-3,1.3928075E-2,6.332081E-3,-1.3805005E-2,-6.1232853E-3,2.8471543E-2],"categories":[],"categories_nodes":[],"categories_segments":[],"categories_sizes":[],"default_left":[0,0,0,0,0,0,0,0,0,0,0,0,0,0,0,0,0,0,0,0,0,0,0,0,0,0,0,0,0],"id":9,"left_children":[1,3,5,7,9,11,13,15,-1,17,19,21,23,25,27,-1,-1,-1,-1,-1,-1,-1,-1,-1,-1,-1,-1,-1,-1],"loss_changes":[2.121602E1,5.1466427E0,9.671553E0,3.4983656E0,6.746191E0,7.531929E0,6.709778E0,3.9122705E0,0E0,2.455555E0,5.59708E0,4.6477947E0,5.2009706E0,4.9184394E0,5.734499E0,0E0,0E0,0E0,0E0,0E0,0E0,0E0,0E0,0E0,0E0,0E0,0E0,0E0,0E0],"parents":[2147483647,0,0,1,1,2,2,3,3,4,4,5,5,6,6,7,7,9,9,10,10,11,11,12,12,13,13,14,14],"right_children":[2,4,6,8,10,12,14,16,-1,18,20,22,24,26,28,-1,-1,-1,-1,-1,-1,-1,-1,-1,-1,-1,-1,-1,-1],"split_conditions":[4.6398374E-1,-3.8787878E-1,-6.666667E-2,1.4345031E0,-1.4666667E0,1.3333334E-1,6.240934E-1,-3.904762E-1,2.68544E-2,4E-1,1.7302487E2,4.047619E-1,5.631631E-1,2.4666667E0,0E0,-2.7924633E-2,1.375383E-2,-1.4711562E-2,-5.650539E-2,2.3168294E-2,-1.9230923E-2,-1.6573427E-2,9.947937E-3,-1.6851412E-3,1.3928075E-2,6.332081E-3,-1.3805005E-2,-6.1232853E-3,2.8471543E-2],"split_indices":[3,20,15,6,18,17,3,18,0,17,11,20,3,18,18,0,0,0,0,0,0,0,0,0,0,0,0,0,0],"split_type":[0,0,0,0,0,0,0,0,0,0,0,0,0,0,0,0,0,0,0,0,0,0,0,0,0,0,0,0,0],"sum_hessian":[1.1761506E3,1.4128535E2,1.0348652E3,2.8452505E1,1.1283285E2,4.5397223E2,5.8089307E2,2.021579E1,8.236714E0,2.4932913E1,8.789993E1,1.2920227E2,3.2476996E2,5.104643E2,7.0428764E1,1.19833975E1,8.232393E0,7.735011E0,1.71979E1,7.2445946E0,8.065534E1,1.1177045E2,1.743182E1,2.5913437E2,6.56356E1,4.7973843E2,3.0725872E1,1.3282506E1,5.714626E1],"tree_param":{"num_deleted":"0","num_feature":"22","num_nodes":"29","size_leaf_vector":"1"}},{"base_weights":[-1.4896007E-2,-1.0715513E-1,1.2695329E-1,-5.49214E-1,-7.9997666E-2,9.1631904E-2,6.718015E-1,1.5457431E-2,-7.186644E-1,-1.5785488E-1,3.4982648E-2,5.6498606E-2,6.67055E-1,8.388128E-3,7.986883E-1,-1.5315251E-2,-4.4048544E-2,-3.951489E-3,-2.2489475E-2,1.5925001E-2,-5.9544602E-3,1.8629128E-2,9.554202E-4,1.3225068E-2,4.354906E-2,1.63531E-2,5.283475E-2],"categories":[],"categories_nodes":[],"categories_segments":[],"categories_sizes":[],"default_left":[0,0,0,0,0,0,0,0,0,0,0,0,0,0,0,0,0,0,0,0,0,0,0,0,0,0,0],"id":10,"left_children":[1,3,5,7,9,11,13,-1,15,17,19,21,23,-1,25,-1,-1,-1,-1,-1,-1,-1,-1,-1,-1,-1,-1],"loss_changes":[1.5190094E1,8.114678E0,8.32526E0,6.188815E0,6.039602E0,8.291855E0,1.0916605E0,0E0,1.4034176E0,8.918207E0,1.1826826E1,4.608145E0,1.1578712E0,0E0,1.4311666E0,0E0,0E0,0E0,0E0,0E0,0E0,0E0,0E0,0E0,0E0,0E0,0E0],"parents":[2147483647,0,0,1,1,2,2,3,3,4,4,5,5,6,6,8,8,9,9,10,10,11,11,12,12,14,14],"right_children":[2,4,6,8,10,12,14,-1,16,18,20,22,24,-1,26,-1,-1,-1,-1,-1,-1,-1,-1,-1,-1,-1,-1],"split_conditions":[5.493669E-1,4.1013736E-1,1.9561234E0,3.6048874E-1,-6.666667E-2,6.704055E-1,-8.449695E-1,1.5457431E-2,-4.4527042E-1,3.94816E-1,6E-1,-3.2819963E0,3E0,8.388128E-3,-5.7611495E-1,-1.5315251E-2,-4.4048544E-2,-3.951489E-3,-2.2489475E-2,1.5925001E-2,-5.9544602E-3,1.8629128E-2,9.554202E-4,1.3225068E-2,4.354906E-2,1.63531E-2,5.283475E-2],"split_indices":[3,3,1,3,15,3,13,0,1,13,15,13,19,0,8,0,0,0,0,0,0,0,0,0,0,0,0],"split_type":[0,0,0,0,0,0,0,0,0,0,0,0,0,0,0,0,0,0,0,0,0,0,0,0,0,0,0],"sum_hessian":[1.1594276E3,7.04796E2,4.5463156E2,3.8614204E1,6.661818E2,4.2891196E2,2.571961E1,5.7437444E0,3.287046E1,3.9958463E2,2.6659717E2,4.0608496E2,2.2826996E1,6.432022E0,1.9287588E1,1.0969327E1,2.1901134E1,3.1698035E2,8.260428E1,9.463371E1,1.7196346E2,4.0592518E1,3.6549243E2,9.272278E0,1.3554717E1,8.307459E0,1.0980129E1],"tree_param":{"num_deleted":"0","num_feature":"22","num_nodes":"27","size_leaf_vector":"1"}},{"base_weights":[2.5797106E-2,-1.2250454E-1,1.5849806E-1,-3.6289418E-1,-6.7215785E-2,8.803953E-2,3.555156E-1,-4.8929074E-1,-1.0600424E-1,-4.1972354E-2,-7.9992676E-1,1.8000513E-1,-7.156499E-2,4.6825665E-1,-9.558032E-3,5.896715E-3,-3.3052668E-2,3.1264022E-3,-3.9380983E-2,-8.6094637E-4,-3.3054788E-2,-5.7895225E-2,-1.6907638E-2,1.2091647E-2,-8.2248E-3,1.4160431E-3,-1.4946471E-2,1.961497E-2,4.717903E-2,-1.4332806E-2,1.7450808E-2],"categories":[],"categories_nodes":[],"categories_segments":[],"categories_sizes":[],"default_left":[0,0,0,0,0,0,0,0,0,0,0,0,0,0,0,0,0,0,0,0,0,0,0,0,0,0,0,0,0,0,0],"id":11,"left_children":[1,3,5,7,9,11,13,15,17,19,21,23,25,27,29,-1,-1,-1,-1,-1,-1,-1,-1,-1,-1,-1,-1,-1,-1,-1,-1],"loss_changes":[2.2906124E1,7.0379324E0,8.29093E0,2.9126654E0,7.8332434E0,6.768523E0,6.8165455E0,7.207692E0,4.5142126E0,6.3140697E0,1.2090979E0,6.29644E0,3.9053192E0,3.4122639E0,3.8118057E0,0E0,0E0,0E0,0E0,0E0,0E0,0E0,0E0,0E0,0E0,0E0,0E0,0E0,0E0,0E0,0E0],"parents":[2147483647,0,0,1,1,2,2,3,3,4,4,5,5,6,6,7,7,8,8,9,9,10,10,11,11,12,12,13,13,14,14],"right_children":[2,4,6,8,10,12,14,16,18,20,22,24,26,28,30,-1,-1,-1,-1,-1,-1,-1,-1,-1,-1,-1,-1,-1,-1,-1,-1],"split_conditions":[-1.3333334E-1,4.5967275E-1,2.2E0,-5.879121E-1,2.9333334E0,1.8856477E0,2.3333333E0,-1.5643966E0,7.5E-1,-2E-1,3.2E0,1.6529606E-1,7.0917404E-1,4.1666666E-1,6.003342E-1,5.896715E-3,-3.3052668E-2,3.1264022E-3,-3.9380983E-2,-8.6094637E-4,-3.3054788E-2,-5.7895225E-2,-1.6907638E-2,1.2091647E-2,-8.2248E-3,1.4160431E-3,-1.4946471E-2,1.961497E-2,4.717903E-2,-1.4332806E-2,1.7450808E-2],"split_indices":[15,3,15,18,17,13,18,4,18,15,17,9,1,21,3,0,0,0,0,0,0,0,0,0,0,0,0,0,0,0,0],"split_type":[0,0,0,0,0,0,0,0,0,0,0,0,0,0,0,0,0,0,0,0,0,0,0,0,0,0,0,0,0,0,0],"sum_hessian":[1.1610415E3,5.465484E2,6.144931E2,9.946744E1,4.4708093E2,4.555584E2,1.5893471E2,6.4755165E1,3.471227E1,4.338728E2,1.3208149E1,2.9092795E2,1.6463046E2,1.2226431E2,3.6670387E1,1.370541E1,5.1049755E1,2.7971027E1,6.741241E0,4.1895767E2,1.4915115E1,5.9811397E0,7.2270093E0,2.4814299E2,4.2784966E1,1.1346104E2,5.1169422E1,1.0789916E2,1.4365152E1,2.1584978E1,1.5085409E1],"tree_param":{"num_deleted":"0","num_feature":"22","num_nodes":"31","size_leaf_vector":"1"}},{"base_weights":[-1.9848526E-3,-1.4402656E-1,8.3699144E-2,-4.2655182E-1,-8.5583724E-2,6.75439E-2,6.673722E-1,-0E0,-5.3281915E-1,-3.4557704E-2,-4.9856088E-1,5.041564E-1,4.9613573E-2,-3.6171495E-3,4.9616892E-2,-1.9772498E-2,2.5233788E-2,-3.8667787E-2,-1.004504E-2,-8.2149945E-4,-4.144246E-2,4.084205E-3,-3.3836305E-2,4.3643974E-2,7.148508E-4,-2.1925392E-2,3.1238936E-3],"categories":[],"categories_nodes":[],"categories_segments":[],"categories_sizes":[],"default_left":[0,0,0,0,0,0,0,0,0,0,0,0,0,0,0,0,0,0,0,0,0,0,0,0,0,0,0],"id":12,"left_children":[1,3,5,7,9,11,13,15,17,19,21,23,25,-1,-1,-1,-1,-1,-1,-1,-1,-1,-1,-1,-1,-1,-1],"loss_changes":[1.4235773E1,6.9949703E0,6.4317527E0,3.0946684E0,7.4799166E0,5.242665E0,5.0036497E0,3.4697332E0,4.0107746E0,4.316222E0,4.422181E0,4.3717723E0,4.1251264E0,0E0,0E0,0E0,0E0,0E0,0E0,0E0,0E0,0E0,0E0,0E0,0E0,0E0,0E0],"parents":[2147483647,0,0,1,1,2,2,3,3,4,4,5,5,6,6,7,7,8,8,9,9,10,10,11,11,12,12],"right_children":[2,4,6,8,10,12,14,16,18,20,22,24,26,-1,-1,-1,-1,-1,-1,-1,-1,-1,-1,-1,-1,-1,-1],"split_conditions":[-9.609487E0,-5.9017223E1,9.3300766E1,-3.3333333E0,-1.2035876E1,-6.666667E-1,2.976022E-1,-1.1933712E0,-3.904762E-1,8E0,-1.7333333E0,1.8878334E1,-6E0,-3.6171495E-3,4.9616892E-2,-1.9772498E-2,2.5233788E-2,-3.8667787E-2,-1.004504E-2,-8.2149945E-4,-4.144246E-2,4.084205E-3,-3.3836305E-2,4.3643974E-2,7.148508E-4,-2.1925392E-2,3.1238936E-3],"split_indices":[2,2,2,15,2,20,4,10,18,19,15,2,19,0,0,0,0,0,0,0,0,0,0,0,0,0,0],"split_type":[0,0,0,0,0,0,0,0,0,0,0,0,0,0,0,0,0,0,0,0,0,0,0,0,0,0,0],"sum_hessian":[1.1652068E3,4.403597E2,7.2484705E2,7.293282E1,3.674269E2,7.072439E2,1.7603148E1,1.5649267E1,5.7283554E1,3.2906335E2,3.836353E1,2.5728903E1,6.81515E2,5.140546E0,1.2462601E1,9.430481E0,6.2187862E0,3.156934E1,2.5714212E1,3.2333426E2,5.729118E0,8.480276E0,2.9883251E1,1.3651019E1,1.2077884E1,1.5652286E1,6.6586273E2],"tree_param":{"num_deleted":"0","num_feature":"22","num_nodes":"27","size_leaf_vector":"1"}},{"base_weights":[4.5723654E-3,-5.1008854E-2,2.7999943E-1,-2.2259718E-1,1.5481634E-2,2.1260415E-1,8.115129E-1,-2.710173E-1,1.2300307E-1,3.489871E-2,-8.152737E-1,1.06677786E-1,4.389202E-1,5.5281878E-2,-1.3927195E-3,-1.5712678E-3,-2.0545296E-2,2.5424866E-2,-9.257439E-3,-1.9407831E-3,6.224406E-3,-1.739949E-2,-5.0184995E-2,1.1403843E-2,-2.3414062E-2,2.9792652E-2,-1.0621411E-2],"categories":[],"categories_nodes":[],"categories_segments":[],"categories_sizes":[],"default_left":[0,0,0,0,0,0,0,0,0,0,0,0,0,0,0,0,0,0,0,0,0,0,0,0,0,0,0],"id":13,"left_children":[1,3,5,7,9,11,13,15,17,19,21,23,25,-1,-1,-1,-1,-1,-1,-1,-1,-1,-1,-1,-1,-1,-1],"loss_changes":[1.8056152E1,1.1216661E1,6.418968E0,4.6944227E0,1.0940277E1,3.9518337E0,5.7850904E0,7.877264E0,4.1883183E0,4.5792937E0,3.3566666E-1,8.655623E0,5.9383783E0,0E0,0E0,0E0,0E0,0E0,0E0,0E0,0E0,0E0,0E0,0E0,0E0,0E0,0E0],"parents":[2147483647,0,0,1,1,2,2,3,3,4,4,5,5,6,6,7,7,8,8,9,9,10,10,11,11,12,12],"right_children":[2,4,6,8,10,12,14,16,18,20,22,24,26,-1,-1,-1,-1,-1,-1,-1,-1,-1,-1,-1,-1,-1,-1],"split_conditions":[3.4860138E1,-8.791209E-1,3.3516484E-1,1.8816903E0,8.666667E-1,8.580307E-1,9E0,-1.3622474E-3,-2.9430145E-1,5.454369E-2,-2.6666668E-1,4E0,2.0972223E0,5.5281878E-2,-1.3927195E-3,-1.5712678E-3,-2.0545296E-2,2.5424866E-2,-9.257439E-3,-1.9407831E-3,6.224406E-3,-1.739949E-2,-5.0184995E-2,1.1403843E-2,-2.3414062E-2,2.9792652E-2,-1.0621411E-2],"split_indices":[2,18,21,1,20,10,19,1,10,6,15,19,18,0,0,0,0,0,0,0,0,0,0,0,0,0,0],"split_type":[0,0,0,0,0,0,0,0,0,0,0,0,0,0,0,0,0,0,0,0,0,0,0,0,0,0,0],"sum_hessian":[1.1700676E3,9.727633E2,1.9730432E2,2.7311713E2,6.996462E2,1.7717894E2,2.012538E1,2.4101273E2,3.2104393E1,6.851912E2,1.4454983E1,1.23197495E2,5.398145E1,1.510934E1,5.016039E0,9.061398E1,1.5039874E2,1.4694356E1,1.7410038E1,3.7314905E2,3.1204218E2,5.7344146E0,8.720568E0,1.0293611E2,2.0261385E1,4.418787E1,9.79358E0],"tree_param":{"num_deleted":"0","num_feature":"22","num_nodes":"27","size_leaf_vector":"1"}},{"base_weights":[2.5863082E-3,-9.654014E-2,1.5302943E-1,-8.0197066E-2,-7.6795363E-1,1.1937777E-1,6.8192095E-1,-3.8805756E-1,-4.5890465E-2,-5.3093653E-2,-6.6431724E-3,9.3158655E-2,5.561531E-1,8.842169E-1,-3.3330363E-3,-2.5848662E-2,4.955702E-3,-2.3284419E-2,-1.4607423E-3,1.1373773E-3,1.4485351E-2,4.1379403E-2,-6.6478574E-3,1.3531141E-2,5.1817954E-2],"categories":[],"categories_nodes":[],"categories_segments":[],"categories_sizes":[],"default_left":[0,0,0,0,0,0,0,0,0,0,0,0,0,0,0,0,0,0,0,0,0,0,0,0,0],"id":14,"left_children":[1,3,5,7,9,11,13,15,17,-1,-1,19,21,23,-1,-1,-1,-1,-1,-1,-1,-1,-1,-1,-1],"loss_changes":[1.7579319E1,7.277307E0,7.8732815E0,7.0791183E0,2.242175E0,4.7020917E0,4.5537167E0,4.5205545E0,4.1188073E0,0E0,0E0,5.6584663E0,4.9151506E0,1.1046524E0,0E0,0E0,0E0,0E0,0E0,0E0,0E0,0E0,0E0,0E0,0E0],"parents":[2147483647,0,0,1,1,2,2,3,3,4,4,5,5,6,6,7,7,8,8,11,11,12,12,13,13],"right_children":[2,4,6,8,10,12,14,16,18,-1,-1,20,22,24,-1,-1,-1,-1,-1,-1,-1,-1,-1,-1,-1],"split_conditions":[5.493669E-1,8.666667E-1,1.9561234E0,-6.1068E1,1E0,4.1666666E-1,7.367749E2,-2.6666668E-1,-3.8E0,-5.3093653E-2,-6.6431724E-3,7.267749E2,4.4302487E2,1.7902487E2,-3.3330363E-3,-2.5848662E-2,4.955702E-3,-2.3284419E-2,-1.4607423E-3,1.1373773E-3,1.4485351E-2,4.1379403E-2,-6.6478574E-3,1.3531141E-2,5.1817954E-2],"split_indices":[3,20,1,2,20,21,11,15,15,0,0,11,11,11,0,0,0,0,0,0,0,0,0,0,0],"split_type":[0,0,0,0,0,0,0,0,0,0,0,0,0,0,0,0,0,0,0,0,0,0,0,0,0],"sum_hessian":[1.1749156E3,7.0646387E2,4.684518E2,6.914961E2,1.4967762E1,4.4246997E2,2.5981838E1,6.683615E1,6.2466E2,9.234669E0,5.733094E0,4.1963763E2,2.283232E1,2.0837479E1,5.14436E0,5.361395E1,1.32222E1,2.1691069E1,6.029689E2,3.1165176E2,1.0798589E2,1.675664E1,6.0756807E0,5.3452134E0,1.5492266E1],"tree_param":{"num_deleted":"0","num_feature":"22","num_nodes":"25","size_leaf_vector":"1"}},{"base_weights":[1.1879393E-2,-4.5620725E-1,4.4756845E-2,-3.8836014E-1,-4.9808186E-2,1.145288E-2,3.1719434E-1,-5.123423E-1,3.774765E-2,5.589025E-1,1.8847428E-3,4.6336716E-1,-9.605016E-2,-6.670374E-3,-3.3720348E-2,1.6306613E-2,-1.0156826E-2,4.1574907E-2,9.782941E-3,-3.1189045E-3,4.046461E-3,2.8747348E-2,-2.8114747E-3,-1.4930958E-2,1.8453036E-2],"categories":[],"categories_nodes":[],"categories_segments":[],"categories_sizes":[],"default_left":[0,0,0,0,0,0,0,0,0,0,0,0,0,0,0,0,0,0,0,0,0,0,0,0,0],"id":15,"left_children":[1,3,5,7,-1,9,11,13,15,17,19,21,23,-1,-1,-1,-1,-1,-1,-1,-1,-1,-1,-1,-1],"loss_changes":[1.776488E1,1.691886E0,9.737783E0,3.9366446E0,0E0,4.8283043E0,7.3106737E0,2.8798208E0,1.2199316E0,8.937316E-1,4.8940454E0,5.374996E0,2.9553318E0,0E0,0E0,0E0,0E0,0E0,0E0,0E0,0E0,0E0,0E0,0E0,0E0],"parents":[2147483647,0,0,1,1,2,2,3,3,5,5,6,6,7,7,8,8,9,9,10,10,11,11,12,12],"right_children":[2,4,6,8,-1,10,12,14,16,18,20,22,24,-1,-1,-1,-1,-1,-1,-1,-1,-1,-1,-1,-1],"split_conditions":[-5.9017223E1,7.5E-1,2.5333333E0,-8.3333336E-2,-4.9808186E-2,-8E-1,2.3333333E0,-1.2028325E0,2.6666668E-1,-9.3333334E-1,6.666667E-2,5.151515E-1,1.4730448E0,-6.670374E-3,-3.3720348E-2,1.6306613E-2,-1.0156826E-2,4.1574907E-2,9.782941E-3,-3.1189045E-3,4.046461E-3,2.8747348E-2,-2.8114747E-3,-1.4930958E-2,1.8453036E-2],"split_indices":[2,18,15,18,0,20,18,4,18,15,15,20,4,0,0,0,0,0,0,0,0,0,0,0,0],"split_type":[0,0,0,0,0,0,0,0,0,0,0,0,0,0,0,0,0,0,0,0,0,0,0,0,0],"sum_hessian":[1.165392E3,7.4639656E1,1.0907523E3,6.8657845E1,5.9818163E0,9.7450214E2,1.16250145E2,5.393556E1,1.4722282E1,1.4855603E1,9.5964655E2,8.667877E1,2.957137E1,1.76276E1,3.630796E1,7.484131E0,7.2381516E0,6.9639454E0,7.891658E0,5.259426E2,4.337039E2,7.206012E1,1.4618654E1,2.159786E1,7.973509E0],"tree_param":{"num_deleted":"0","num_feature":"22","num_nodes":"25","size_leaf_vector":"1"}},{"base_weights":[-1.3858959E-2,-1.1774087E-1,1.4152671E-1,3.957093E-2,-1.2869707E-1,-1.5629485E-1,1.7109188E-1,-2.1731652E-1,-0E0,4.0697557E-1,-3.764542E-1,1.9424444E-1,-2.2169624E-1,-5.3557735E-3,-2.2293199E-2,1.4050639E-3,-5.1074903E-2,1.0237293E-3,3.239799E-2,3.185762E-3,-3.2362532E-2,7.6211705E-3,2.5707385E-2,-0E0,-2.8506506E-2],"categories":[],"categories_nodes":[],"categories_segments":[],"categories_sizes":[],"default_left":[0,0,0,0,0,0,0,0,0,0,0,0,0,0,0,0,0,0,0,0,0,0,0,0,0],"id":16,"left_children":[1,3,5,-1,7,9,11,13,15,17,19,21,23,-1,-1,-1,-1,-1,-1,-1,-1,-1,-1,-1,-1],"loss_changes":[1.8876055E1,6.774461E0,4.145729E0,0E0,7.922636E0,5.2426972E0,3.9105768E0,1.0050339E1,8.296182E0,7.1527696E-1,3.9987688E0,5.003604E0,1.6096511E0,0E0,0E0,0E0,0E0,0E0,0E0,0E0,0E0,0E0,0E0,0E0,0E0],"parents":[2147483647,0,0,1,1,2,2,4,4,5,5,6,6,7,7,8,8,9,9,10,10,11,11,12,12],"right_children":[2,4,6,-1,8,10,12,14,16,18,20,22,24,-1,-1,-1,-1,-1,-1,-1,-1,-1,-1,-1,-1],"split_conditions":[5.493669E-1,-9.270826E0,-1.3269231E0,3.957093E-2,-1.3333334E-1,-2.057143E0,7.1428573E-1,-1.0666667E0,7.4358976E-1,4.0552487E2,5.6262565E-1,5.2278976E0,5.5806437E0,-5.3557735E-3,-2.2293199E-2,1.4050639E-3,-5.1074903E-2,1.0237293E-3,3.239799E-2,3.185762E-3,-3.2362532E-2,7.6211705E-3,2.5707385E-2,-0E0,-2.8506506E-2],"split_indices":[3,13,18,0,15,18,20,15,20,11,3,13,13,0,0,0,0,0,0,0,0,0,0,0,0],"split_type":[0,0,0,0,0,0,0,0,0,0,0,0,0,0,0,0,0,0,0,0,0,0,0,0,0],"sum_hessian":[1.168097E3,7.0214404E2,4.65953E2,6.969087E0,6.951749E2,4.0164272E1,4.2578873E2,4.1091595E2,2.8425897E2,1.0410281E1,2.9753992E1,4.0376743E2,2.202131E1,2.7970444E2,1.3121153E2,2.775191E2,6.7398787E0,5.2115526E0,5.1987286E0,1.0920854E1,1.8833138E1,3.5977356E2,4.3993855E1,1.4588317E1,7.4329934E0],"tree_param":{"num_deleted":"0","num_feature":"22","num_nodes":"25","size_leaf_vector":"1"}},{"base_weights":[-3.2687814E-3,-3.146513E-1,3.4273677E-2,-1.7863934E-1,-5.283959E-1,1.3800761E-2,5.549279E-1,-5.58645E-2,-4.189932E-1,-7.3097295E-1,-8.3131514E-2,-3.3638187E-2,1.4879344E-1,8.59368E-1,9.248984E-2,2.2271529E-2,-1.0202463E-2,-0E0,-3.299999E-2,-2.0570053E-2,-6.345531E-2,1.2613359E-2,-3.130732E-2,2.0898672E-4,-1.4423956E-2,2.442795E-2,3.3856295E-3,5.6716736E-2,2.3598036E-2,-1.725424E-2,3.422029E-2],"categories":[],"categories_nodes":[],"categories_segments":[],"categories_sizes":[],"default_left":[0,0,0,0,0,0,0,0,0,0,0,0,0,0,0,0,0,0,0,0,0,0,0,0,0,0,0,0,0,0,0],"id":17,"left_children":[1,3,5,7,9,11,13,15,17,19,21,23,25,27,29,-1,-1,-1,-1,-1,-1,-1,-1,-1,-1,-1,-1,-1,-1,-1,-1],"loss_changes":[1.3686861E1,3.2184734E0,1.0716721E1,2.100271E0,3.780857E0,6.4386835E0,4.811949E0,4.0922704E0,2.421176E0,4.050249E0,3.3734596E0,7.2252674E0,6.901878E0,1.0281448E0,4.7850175E0,0E0,0E0,0E0,0E0,0E0,0E0,0E0,0E0,0E0,0E0,0E0,0E0,0E0,0E0,0E0,0E0],"parents":[2147483647,0,0,1,1,2,2,3,3,4,4,5,5,6,6,7,7,8,8,9,9,10,10,11,11,12,12,13,13,14,14],"right_children":[2,4,6,8,10,12,14,16,18,20,22,24,26,28,30,-1,-1,-1,-1,-1,-1,-1,-1,-1,-1,-1,-1,-1,-1,-1,-1],"split_conditions":[4.5843953E-1,5.3329945E-1,6.585259E-1,1.0837789E0,-5.454369E-2,1.3333334E0,-3.594882E-1,-8.41939E-1,-3.2666667E0,-3.846154E-2,1.7362802E0,2.4082441E0,-1.9170983E-2,2.1333334E0,3.063682E-1,2.2271529E-2,-1.0202463E-2,-0E0,-3.299999E-2,-2.0570053E-2,-6.345531E-2,1.2613359E-2,-3.130732E-2,2.0898672E-4,-1.4423956E-2,2.442795E-2,3.3856295E-3,5.6716736E-2,2.3598036E-2,-1.725424E-2,3.422029E-2],"split_indices":[3,1,3,8,4,15,8,4,15,20,13,13,4,15,8,0,0,0,0,0,0,0,0,0,0,0,0,0,0,0,0],"split_type":[0,0,0,0,0,0,0,0,0,0,0,0,0,0,0,0,0,0,0,0,0,0,0,0,0,0,0,0,0,0,0],"sum_hessian":[1.1568966E3,1.2511467E2,1.0317819E3,7.9012E1,4.6102665E1,9.946573E2,3.7124603E1,5.4490486E1,2.4521517E1,3.0473763E1,1.5628902E1,7.338246E2,2.6083273E2,2.121706E1,1.5907544E1,1.12049885E1,4.32855E1,9.67758E0,1.4843937E1,2.0809576E1,9.6641865E0,9.423209E0,6.205694E0,6.381464E2,9.567815E1,4.809608E1,2.1273665E2,1.0526857E1,1.0690202E1,8.900285E0,7.007259E0],"tree_param":{"num_deleted":"0","num_feature":"22","num_nodes":"31","size_leaf_vector":"1"}},{"base_weights":[2.5382014E-2,-5.2737005E-2,1.6319616E-1,-3.809602E-1,-3.6681455E-2,1.3825065E-1,7.0599836E-1,1.293993E-1,-6.847138E-1,2.4892527E-3,-1.8526708E-1,1.0041988E-1,4.976729E-1,-0E0,5.048889E-2,2.1034716E-2,-4.895331E-3,-8.052134E-3,-4.3083686E-2,-3.1510417E-3,8.912956E-3,-1.4898466E-2,7.177138E-3,6.9675804E-3,-9.545025E-3,3.358767E-2,-0E0],"categories":[],"categories_nodes":[],"categories_segments":[],"categories_sizes":[],"default_left":[0,0,0,0,0,0,0,0,0,0,0,0,0,0,0,0,0,0,0,0,0,0,0,0,0,0,0],"id":18,"left_children":[1,3,5,7,9,11,13,15,17,19,21,23,25,-1,-1,-1,-1,-1,-1,-1,-1,-1,-1,-1,-1,-1,-1],"loss_changes":[1.2699285E1,3.7163656E0,5.264188E0,5.5286794E0,4.254435E0,5.2328157E0,3.3936558E0,1.0402956E0,1.3560724E0,6.566731E0,5.7484484E0,4.241807E0,3.4393034E0,0E0,0E0,0E0,0E0,0E0,0E0,0E0,0E0,0E0,0E0,0E0,0E0,0E0,0E0],"parents":[2147483647,0,0,1,1,2,2,3,3,4,4,5,5,6,6,7,7,8,8,9,9,10,10,11,11,12,12],"right_children":[2,4,6,8,10,12,14,16,18,20,22,24,26,-1,-1,-1,-1,-1,-1,-1,-1,-1,-1,-1,-1,-1,-1],"split_conditions":[5.558594E-1,-8.37714E1,9.3300766E1,-3.5919154E-1,1.8489754E0,1.6908506E0,-7.791351E-1,1.5333333E0,-4E0,6.666667E-2,2.1333334E0,1.2034914E0,5E0,-0E0,5.048889E-2,2.1034716E-2,-4.895331E-3,-8.052134E-3,-4.3083686E-2,-3.1510417E-3,8.912956E-3,-1.4898466E-2,7.177138E-3,6.9675804E-3,-9.545025E-3,3.358767E-2,-0E0],"split_indices":[3,2,2,1,13,1,1,17,19,15,15,1,19,0,0,0,0,0,0,0,0,0,0,0,0,0,0],"split_type":[0,0,0,0,0,0,0,0,0,0,0,0,0,0,0,0,0,0,0,0,0,0,0,0,0,0,0],"sum_hessian":[1.1726539E3,7.464966E2,4.261573E2,3.2300888E1,7.1419574E2,4.0951318E2,1.664412E1,1.1651777E1,2.064911E1,5.633116E2,1.5088416E2,3.7293106E2,3.658212E1,5.690933E0,1.0953186E1,5.698273E0,5.953504E0,6.4114604E0,1.4237651E1,4.0876147E2,1.5455011E2,1.1357115E2,3.7313004E1,3.309423E2,4.198878E1,2.7249317E1,9.332803E0],"tree_param":{"num_deleted":"0","num_feature":"22","num_nodes":"27","size_leaf_vector":"1"}},{"base_weights":[-1.1635404E-2,-9.253694E-2,1.3289867E-1,-3.5602516E-1,-5.983117E-2,4.1014144E-1,7.94415E-2,3.5168472E-1,-4.9995208E-1,1.9886797E-2,-1.6977587E-1,-5.4528727E-3,4.9720898E-1,6.021055E-1,3.7973233E-2,-3.326198E-3,3.741231E-2,1.0138873E-2,-3.3448324E-2,-2.2437496E-3,1.4147252E-2,5.1291604E-2,-1.0039075E-2,4.150896E-2,1.483714E-2,1.2173288E-2,4.679582E-2,-4.6634572E-4,2.3846002E-2],"categories":[],"categories_nodes":[],"categories_segments":[],"categories_sizes":[],"default_left":[0,0,0,0,0,0,0,0,0,0,0,0,0,0,0,0,0,0,0,0,0,0,0,0,0,0,0,0,0],"id":19,"left_children":[1,3,5,7,9,11,13,15,17,19,21,-1,23,25,27,-1,-1,-1,-1,-1,-1,-1,-1,-1,-1,-1,-1,-1,-1],"loss_changes":[1.3638697E1,6.24304E0,5.903061E0,8.504706E0,5.9594526E0,3.2163897E0,7.294097E0,2.6620495E0,8.486227E0,6.7287145E0,1.0350309E1,0E0,3.0104609E0,2.1691113E0,7.0567875E0,0E0,0E0,0E0,0E0,0E0,0E0,0E0,0E0,0E0,0E0,0E0,0E0,0E0,0E0],"parents":[2147483647,0,0,1,1,2,2,3,3,4,4,5,5,6,6,7,7,8,8,9,9,10,10,12,12,13,13,14,14],"right_children":[2,4,6,8,10,12,14,16,18,20,22,-1,24,26,28,-1,-1,-1,-1,-1,-1,-1,-1,-1,-1,-1,-1,-1,-1],"split_conditions":[1.289434E1,-1.8E0,2.7153732E2,-4.1025642E-1,8.461098E-2,-1.3333334E-1,1.5590421E1,-3.272727E-1,-3.0666666E0,1.904762E-1,-4E0,-5.4528727E-3,2.976022E-1,1.4373779E1,8.112414E1,-3.326198E-3,3.741231E-2,1.0138873E-2,-3.3448324E-2,-2.2437496E-3,1.4147252E-2,5.1291604E-2,-1.0039075E-2,4.150896E-2,1.483714E-2,1.2173288E-2,4.679582E-2,-4.6634572E-4,2.3846002E-2],"split_indices":[2,18,11,20,4,15,2,21,18,20,19,0,4,2,2,0,0,0,0,0,0,0,0,0,0,0,0,0,0],"split_type":[0,0,0,0,0,0,0,0,0,0,0,0,0,0,0,0,0,0,0,0,0,0,0,0,0,0,0,0,0],"sum_hessian":[1.1660697E3,7.5005365E2,4.1601605E2,8.004134E1,6.7001227E2,6.465788E1,3.5135815E2,1.2695959E1,6.734539E1,3.86235E2,2.837773E2,8.424702E0,5.6233185E1,2.3947535E1,3.274106E2,5.9707212E0,6.7252383E0,1.2444684E1,5.4900703E1,3.090735E2,7.71615E1,5.954501E0,2.7782278E2,1.901471E1,3.7218475E1,1.3100175E1,1.0847361E1,2.954167E2,3.199393E1],"tree_param":{"num_deleted":"0","num_feature":"22","num_nodes":"29","size_leaf_vector":"1"}},{"base_weights":[-9.733655E-3,-6.3532375E-2,1.5181021E-1,-8.4842175E-2,2.7329242E-1,6.438361E-2,5.1402634E-1,-1.5564119E-2,-1.9426037E-1,6.4643097E-1,-1.443476E-1,1.0948095E-1,-3.6453545E-1,2.4519911E-1,8.7571734E-1,-4.07644E-3,1.0009087E-2,-2.0125784E-2,-3.4064923E-3,5.587844E-2,1.7870186E-2,-4.7411866E-2,7.0154606E-3,-7.175027E-3,9.702927E-3,1.1746715E-2,-3.908586E-2,4.8628114E-2,-4.3863533E-3,1.9421076E-2,5.0291788E-2],"categories":[],"categories_nodes":[],"categories_segments":[],"categories_sizes":[],"default_left":[0,0,0,0,0,0,0,0,0,0,0,0,0,0,0,0,0,0,0,0,0,0,0,0,0,0,0,0,0,0,0],"id":20,"left_children":[1,3,5,7,9,11,13,15,17,19,21,23,25,27,29,-1,-1,-1,-1,-1,-1,-1,-1,-1,-1,-1,-1,-1,-1,-1,-1],"loss_changes":[1.0087493E1,6.22184E0,8.827697E0,6.1588473E0,8.29334E0,4.4583206E0,4.565337E0,7.216513E0,8.080381E0,2.6424198E0,6.0871167E0,4.6422763E0,5.842754E0,8.685877E0,3.2208443E-1,0E0,0E0,0E0,0E0,0E0,0E0,0E0,0E0,0E0,0E0,0E0,0E0,0E0,0E0,0E0,0E0],"parents":[2147483647,0,0,1,1,2,2,3,3,4,4,5,5,6,6,7,7,8,8,9,9,10,10,11,11,12,12,13,13,14,14],"right_children":[2,4,6,8,10,12,14,16,18,20,22,24,26,28,30,-1,-1,-1,-1,-1,-1,-1,-1,-1,-1,-1,-1,-1,-1,-1,-1],"split_conditions":[1.3333334E0,7.950249E2,1.2162956E0,4.1702487E2,-8.3333336E-2,8.4702384E-1,1.2045043E0,3.6152487E2,-1.904762E-1,-1.5740639E-1,-7.319506E-1,-1.2141145E0,1.8E0,1.1073173E-1,2.2E0,-4.07644E-3,1.0009087E-2,-2.0125784E-2,-3.4064923E-3,5.587844E-2,1.7870186E-2,-4.7411866E-2,7.0154606E-3,-7.175027E-3,9.702927E-3,1.1746715E-2,-3.908586E-2,4.8628114E-2,-4.3863533E-3,1.9421076E-2,5.0291788E-2],"split_indices":[15,7,1,7,18,1,4,7,20,1,8,1,15,4,15,0,0,0,0,0,0,0,0,0,0,0,0,0,0,0,0],"split_type":[0,0,0,0,0,0,0,0,0,0,0,0,0,0,0,0,0,0,0,0,0,0,0,0,0,0,0,0,0,0,0],"sum_hessian":[1.1636713E3,8.7573004E2,2.8794125E2,8.2572186E2,5.0008152E1,2.3401593E2,5.3925316E1,5.0909842E2,3.1662347E2,2.6754158E1,2.3253994E1,2.1348065E2,2.0535275E1,3.268929E1,2.1236029E1,3.9214044E2,1.16957985E2,1.1710873E2,1.9951474E2,8.424669E0,1.8329489E1,5.930686E0,1.7323309E1,5.183317E1,1.6164748E2,8.114078E0,1.2421197E1,1.0132596E1,2.2556692E1,6.1251235E0,1.5110905E1],"tree_param":{"num_deleted":"0","num_feature":"22","num_nodes":"31","size_leaf_vector":"1"}},{"base_weights":[1.2840715E-2,-4.3696392E-1,2.6457386E-2,1.6102798E-2,-7.2143024E-1,-4.1775227E-2,9.7480685E-2,-8.873366E-1,-1.4175856E-3,-1.3136189E-1,7.385609E-2,-1.2286159E-1,1.7760578E-1,-1.9435095E-2,-5.266742E-2,-1.8077806E-3,-1.4843376E-2,1.7529458E-2,-2.2960126E-3,1.7216646E-3,-1.9432733E-2,3.6189936E-2,5.52619E-3],"categories":[],"categories_nodes":[],"categories_segments":[],"categories_sizes":[],"default_left":[0,0,0,0,0,0,0,0,0,0,0,0,0,0,0,0,0,0,0,0,0,0,0],"id":21,"left_children":[1,3,5,-1,7,9,11,13,-1,15,17,19,21,-1,-1,-1,-1,-1,-1,-1,-1,-1,-1],"loss_changes":[6.887715E0,7.5464554E0,5.480052E0,0E0,2.363511E0,5.9481554E0,9.84309E0,4.7205257E-1,0E0,4.9318833E0,8.363696E0,6.3303347E0,1.4484126E1,0E0,0E0,0E0,0E0,0E0,0E0,0E0,0E0,0E0,0E0],"parents":[2147483647,0,0,1,1,2,2,4,4,5,5,6,6,7,7,9,9,10,10,11,11,12,12],"right_children":[2,4,6,-1,8,10,12,14,-1,16,18,20,22,-1,-1,-1,-1,-1,-1,-1,-1,-1,-1],"split_conditions":[-8.37714E1,-1.0375478E0,3.8752487E2,1.6102798E-2,7.522749E2,5.09927E0,-8.783855E-1,-2.6190478E-1,-1.4175856E-3,9.948929E-2,-1.9502985E-1,2.4666308E-1,4.0702487E2,-1.9435095E-2,-5.266742E-2,-1.8077806E-3,-1.4843376E-2,1.7529458E-2,-2.2960126E-3,1.7216646E-3,-1.9432733E-2,3.6189936E-2,5.52619E-3],"split_indices":[2,1,11,0,11,2,1,20,0,4,4,4,11,0,0,0,0,0,0,0,0,0,0],"split_type":[0,0,0,0,0,0,0,0,0,0,0,0,0,0,0,0,0,0,0,0,0,0,0],"sum_hessian":[1.1551779E3,3.195004E1,1.1232279E3,8.194761E0,2.375528E1,5.694882E2,5.537397E2,1.8358898E1,5.396381E0,3.2324136E2,2.4624683E2,1.4585844E2,4.0788123E2,6.1724653E0,1.2186433E1,2.0789203E2,1.15349335E2,7.506438E1,1.7118245E2,9.0996506E1,5.4861942E1,4.2729225E1,3.65152E2],"tree_param":{"num_deleted":"0","num_feature":"22","num_nodes":"23","size_leaf_vector":"1"}},{"base_weights":[1.6891907E-3,-8.1909396E-2,1.1327252E-1,-2.4778722E-1,-3.7969436E-2,7.267243E-1,9.648831E-2,3.354587E-2,-3.4744433E-1,3.986233E-2,-5.5787753E-2,6.7478195E-3,5.686901E-2,-2.7908328E-1,1.2786983E-1,1.4664741E-2,-2.0400189E-2,-1.9613126E-2,1.1230775E-2,-9.717389E-3,2.0453406E-3,2.4260417E-2,-2.4106255E-2,-1.6855782E-2,7.642889E-3],"categories":[],"categories_nodes":[],"categories_segments":[],"categories_sizes":[],"default_left":[0,0,0,0,0,0,0,0,0,0,0,0,0,0,0,0,0,0,0,0,0,0,0,0,0],"id":22,"left_children":[1,3,5,7,9,11,13,15,17,-1,19,-1,-1,21,23,-1,-1,-1,-1,-1,-1,-1,-1,-1,-1],"loss_changes":[1.0828359E1,4.6590786E0,4.656404E0,3.9725657E0,7.493403E0,2.2099528E0,5.707919E0,4.0867643E0,2.7765179E0,0E0,6.9978266E0,0E0,0E0,5.9264436E0,5.2111015E0,0E0,0E0,0E0,0E0,0E0,0E0,0E0,0E0,0E0,0E0],"parents":[2147483647,0,0,1,1,2,2,3,3,4,4,5,5,6,6,7,7,8,8,10,10,13,13,14,14],"right_children":[2,4,6,8,10,12,14,16,18,-1,20,-1,-1,22,24,-1,-1,-1,-1,-1,-1,-1,-1,-1,-1],"split_conditions":[5.4451424E-1,4.6090582E-1,-2.6666667E0,-8.2275647E-1,-2.3157916E0,-1.6428572E0,-1.3241758E0,-4.3825075E-1,7.875249E2,3.986233E-2,-1.2085567E0,6.7478195E-3,5.686901E-2,-1.0624082E0,-1.2175356E0,1.4664741E-2,-2.0400189E-2,-1.9613126E-2,1.1230775E-2,-9.717389E-3,2.0453406E-3,2.4260417E-2,-2.4106255E-2,-1.6855782E-2,7.642889E-3],"split_indices":[3,3,15,1,10,18,18,13,11,0,13,0,0,10,10,0,0,0,0,0,0,0,0,0,0],"split_type":[0,0,0,0,0,0,0,0,0,0,0,0,0,0,0,0,0,0,0,0,0,0,0,0,0],"sum_hessian":[1.157143E3,6.591161E2,4.9802686E2,1.3467726E2,5.244388E2,1.1343442E1,4.866834E2,3.4089214E1,1.0058804E2,9.454706E0,5.1498413E2,5.6900716E0,5.65337E0,3.569247E1,4.5099097E2,2.2387518E1,1.1701695E1,9.438199E1,6.206056E0,2.1337952E2,3.0160458E2,6.683215E0,2.9009254E1,2.1342411E1,4.2964853E2],"tree_param":{"num_deleted":"0","num_feature":"22","num_nodes":"25","size_leaf_vector":"1"}},{"base_weights":[-1.5820622E-2,-3.7344196E-1,5.8745802E-3,-6.369904E-1,-1.4088899E-1,1.7791556E-2,-5.523705E-1,7.839499E-4,-7.901342E-1,-3.0974383E-2,-1.2836942E-3,-4.921735E-3,3.518098E-1,-8.024046E-1,1.748193E-3,-5.1983543E-2,-1.085066E-2,7.7677863E-3,-2.3684843E-2,-3.534214E-2,3.5220323E-4,-2.99189E-3,3.1553164E-2,-5.6616843E-2,-2.2448426E-2],"categories":[],"categories_nodes":[],"categories_segments":[],"categories_sizes":[],"default_left":[0,0,0,0,0,0,0,0,0,0,0,0,0,0,0,0,0,0,0,0,0,0,0,0,0],"id":23,"left_children":[1,3,5,7,9,11,13,-1,15,-1,17,19,21,23,-1,-1,-1,-1,-1,-1,-1,-1,-1,-1,-1],"loss_changes":[9.240964E0,3.6941996E0,7.0603557E0,3.4605455E0,2.2586186E0,8.360033E0,3.6638908E0,0E0,2.7848787E0,0E0,2.57014E0,8.835757E0,8.382382E0,5.8674145E-1,0E0,0E0,0E0,0E0,0E0,0E0,0E0,0E0,0E0,0E0,0E0],"parents":[2147483647,0,0,1,1,2,2,3,3,4,4,5,5,6,6,8,8,10,10,11,11,12,12,13,13],"right_children":[2,4,6,8,10,12,14,-1,16,-1,18,20,22,24,-1,-1,-1,-1,-1,-1,-1,-1,-1,-1,-1],"split_conditions":[-6.1068E1,4.4002487E2,8.666667E-1,-1.5643966E0,-1.350989E0,1.5140685E0,7.330249E2,7.839499E-4,-1.17095E0,-3.0974383E-2,3.2693553E-1,-1.405661E0,7.1428575E-2,-1.0998616E1,1.748193E-3,-5.1983543E-2,-1.085066E-2,7.7677863E-3,-2.3684843E-2,-3.534214E-2,3.5220323E-4,-2.99189E-3,3.1553164E-2,-5.6616843E-2,-2.2448426E-2],"split_indices":[2,11,20,4,10,4,11,0,13,0,10,6,21,2,0,0,0,0,0,0,0,0,0,0,0],"split_type":[0,0,0,0,0,0,0,0,0,0,0,0,0,0,0,0,0,0,0,0,0,0,0,0,0],"sum_hessian":[1.1660802E3,6.7085396E1,1.0989948E3,2.962392E1,3.746147E1,1.0778495E3,2.1145287E1,5.180087E0,2.4443834E1,6.874653E0,3.058682E1,1.0087431E3,6.910634E1,1.5171678E1,5.97361E0,1.5854376E1,8.589458E0,2.267962E1,7.9071994E0,1.6635046E1,9.921081E2,2.7525797E1,4.1580544E1,5.9752803E0,9.196397E0],"tree_param":{"num_deleted":"0","num_feature":"22","num_nodes":"25","size_leaf_vector":"1"}},{"base_weights":[-2.01278E-2,-1.11268826E-1,5.8972295E-2,-5.4970007E-2,-2.9577157E-1,3.662266E-2,4.5606172E-1,-2.905004E-1,4.4015744E-3,3.6030662E-1,-3.9602122E-1,1.7970731E-2,5.1003176E-1,-1.0819425E-1,7.5129443E-1,9.836881E-3,-2.266976E-2,3.9635323E-2,-5.7017343E-4,3.9722286E-2,-9.939774E-3,-1.3601166E-2,-3.440855E-2,3.4147052E-3,-5.5026594E-3,3.7905943E-2,-4.2771245E-3,1.0266786E-2,-2.3961646E-2,1.4612724E-2,4.5313843E-2],"categories":[],"categories_nodes":[],"categories_segments":[],"categories_sizes":[],"default_left":[0,0,0,0,0,0,0,0,0,0,0,0,0,0,0,0,0,0,0,0,0,0,0,0,0,0,0,0,0,0,0],"id":24,"left_children":[1,3,5,7,9,11,13,15,17,19,21,23,25,27,29,-1,-1,-1,-1,-1,-1,-1,-1,-1,-1,-1,-1,-1,-1,-1,-1],"loss_changes":[8.433354E0,5.466359E0,5.2531214E0,6.026725E0,8.384999E0,4.942831E0,5.7069335E0,7.074967E0,4.576731E0,4.445492E0,3.303381E0,3.6613312E0,3.5540347E0,1.5416765E0,6.7331314E-1,0E0,0E0,0E0,0E0,0E0,0E0,0E0,0E0,0E0,0E0,0E0,0E0,0E0,0E0,0E0,0E0],"parents":[2147483647,0,0,1,1,2,2,3,3,4,4,5,5,6,6,7,7,8,8,9,9,10,10,11,11,12,12,13,13,14,14],"right_children":[2,4,6,8,10,12,14,16,18,20,22,24,26,28,30,-1,-1,-1,-1,-1,-1,-1,-1,-1,-1,-1,-1,-1,-1,-1,-1],"split_conditions":[-1.3333334E-1,-3.809524E-2,2.0915885E0,-1.7333333E0,-1.5833334E0,8.528769E1,-5E-1,-2.8E0,-1.48233E0,1.1810436E0,-4E-1,3.2786539E0,1.7417582E0,-2.1333334E0,1E0,9.836881E-3,-2.266976E-2,3.9635323E-2,-5.7017343E-4,3.9722286E-2,-9.939774E-3,-1.3601166E-2,-3.440855E-2,3.4147052E-3,-5.5026594E-3,3.7905943E-2,-4.2771245E-3,1.0266786E-2,-2.3961646E-2,1.4612724E-2,4.5313843E-2],"split_indices":[15,21,1,18,18,2,18,18,8,1,15,13,18,17,19,0,0,0,0,0,0,0,0,0,0,0,0,0,0,0,0],"split_type":[0,0,0,0,0,0,0,0,0,0,0,0,0,0,0,0,0,0,0,0,0,0,0,0,0,0,0,0,0,0,0],"sum_hessian":[1.1642568E3,5.437033E2,6.205536E2,4.1965765E2,1.2404564E2,5.8971375E2,3.0839844E1,8.539994E1,3.3425772E2,1.5437056E1,1.0860858E2,5.6937494E2,2.0338774E1,1.0229301E1,2.0610542E1,2.0576357E1,6.4823586E1,6.225587E0,3.2803214E2,8.9560795E0,6.4809766E0,7.880411E1,2.9804474E1,4.1185568E2,1.5751929E2,1.4757942E1,5.5808325E0,5.055986E0,5.173315E0,6.744882E0,1.386566E1],"tree_param":{"num_deleted":"0","num_feature":"22","num_nodes":"31","size_leaf_vector":"1"}},{"base_weights":[6.33444E-3,-2.5743303E-1,3.4767363E-2,-1.6689439E-1,-4.8724987E-2,-1.0318591E-1,6.384801E-2,-3.3778946E-3,-4.2515722E-1,4.2903718E-2,-1.4809024E-1,4.8406586E-2,5.5942005E-1,-2.230429E-2,6.7858035E-3,-7.109012E-3,-4.077812E-2,-2.4612911E-2,-3.9615366E-3,9.150993E-3,1.1127042E-4,-1.1306084E-2,4.1470326E-2],"categories":[],"categories_nodes":[],"categories_segments":[],"categories_sizes":[],"default_left":[0,0,0,0,0,0,0,0,0,0,0,0,0,0,0,0,0,0,0,0,0,0,0],"id":25,"left_children":[1,3,5,7,-1,9,11,13,15,-1,17,19,21,-1,-1,-1,-1,-1,-1,-1,-1,-1,-1],"loss_changes":[8.649739E0,6.5356283E0,4.22349E0,4.059595E0,0E0,7.59547E0,6.3708525E0,4.167998E0,3.609291E0,0E0,3.8109078E0,5.1997805E0,5.874215E0,0E0,0E0,0E0,0E0,0E0,0E0,0E0,0E0,0E0,0E0],"parents":[2147483647,0,0,1,1,2,2,3,3,5,5,6,6,7,7,8,8,10,10,11,11,12,12],"right_children":[2,4,6,8,-1,10,12,14,16,-1,18,20,22,-1,-1,-1,-1,-1,-1,-1,-1,-1,-1],"split_conditions":[4.5520374E-1,-3.88646E1,-1.2141145E0,5.3329945E-1,-4.8724987E-2,4.6513316E-1,8.112414E1,3.4452487E2,0E0,4.2903718E-2,4.969551E-1,-3.9716944E-1,4.020549E-2,-2.230429E-2,6.7858035E-3,-7.109012E-3,-4.077812E-2,-2.4612911E-2,-3.9615366E-3,9.150993E-3,1.1127042E-4,-1.1306084E-2,4.1470326E-2],"split_indices":[3,2,1,1,0,3,2,11,19,0,3,1,13,0,0,0,0,0,0,0,0,0,0],"split_type":[0,0,0,0,0,0,0,0,0,0,0,0,0,0,0,0,0,0,0,0,0,0,0],"sum_hessian":[1.1659993E3,1.1096414E2,1.0550352E3,1.00237885E2,1.0726257E1,1.8024484E2,8.747903E2,6.3183186E1,3.7054703E1,6.7390623E0,1.7350578E2,8.503995E2,2.4390808E1,1.5437226E1,4.7745956E1,2.3016546E1,1.4038155E1,2.6691021E1,1.4681476E2,2.1369908E2,6.367004E2,5.806621E0,1.8584187E1],"tree_param":{"num_deleted":"0","num_feature":"22","num_nodes":"23","size_leaf_vector":"1"}},{"base_weights":[-1.4258433E-2,-4.6125796E-2,2.396718E-1,4.7571614E-1,-5.6525648E-2,-2.3068605E-1,3.4554866E-1,2.5599874E-3,4.442055E-2,-6.364973E-1,-4.459407E-2,-5.5118114E-1,2.9769713E-2,4.897744E-1,-2.8365102E-1,-4.2118825E-2,-1.1182518E-2,-1.6440535E-2,-1.421339E-3,-5.152706E-2,7.647083E-3,-0E0,2.6887788E-2,4.716517E-3,-2.4222827E-2],"categories":[],"categories_nodes":[],"categories_segments":[],"categories_sizes":[],"default_left":[0,0,0,0,0,0,0,0,0,0,0,0,0,0,0,0,0,0,0,0,0,0,0,0,0],"id":26,"left_children":[1,3,5,7,9,11,13,-1,-1,15,17,19,-1,21,23,-1,-1,-1,-1,-1,-1,-1,-1,-1,-1],"loss_changes":[9.295608E0,5.4215174E0,6.4956093E0,2.8737445E0,6.6499786E0,6.446193E0,9.814703E0,0E0,0E0,9.382415E-1,4.387613E0,6.558676E0,0E0,2.2855988E0,1.732808E0,0E0,0E0,0E0,0E0,0E0,0E0,0E0,0E0,0E0,0E0],"parents":[2147483647,0,0,1,1,2,2,3,3,4,4,5,5,6,6,9,9,10,10,11,11,13,13,14,14],"right_children":[2,4,6,8,10,12,14,-1,-1,16,18,20,-1,22,24,-1,-1,-1,-1,-1,-1,-1,-1,-1,-1],"split_conditions":[2.4666667E0,-8.178584E0,-1.2342914E0,2.4486299E0,-2.0626264E0,1.4730448E0,8E0,2.5599874E-3,4.442055E-2,-1.2666667E0,-6E0,-5.918859E-1,2.9769713E-2,1.4285715E-1,3.0666666E0,-4.2118825E-2,-1.1182518E-2,-1.6440535E-2,-1.421339E-3,-5.152706E-2,7.647083E-3,-0E0,2.6887788E-2,4.716517E-3,-2.4222827E-2],"split_indices":[15,13,1,8,10,4,19,0,0,15,19,8,0,18,15,0,0,0,0,0,0,0,0,0,0],"split_type":[0,0,0,0,0,0,0,0,0,0,0,0,0,0,0,0,0,0,0,0,0,0,0,0,0],"sum_hessian":[1.1583208E3,1.0316409E3,1.2667996E2,1.8344284E1,1.01329663E3,2.219177E1,1.0448819E2,1.0193947E1,8.150338E0,1.8526104E1,9.947705E2,1.6664482E1,5.52729E0,8.583034E1,1.8657858E1,1.0859273E1,7.6668305E0,5.0835285E1,9.4393524E2,1.0061339E1,6.603142E0,6.899928E0,7.8930405E1,5.793282E0,1.2864575E1],"tree_param":{"num_deleted":"0","num_feature":"22","num_nodes":"25","size_leaf_vector":"1"}},{"base_weights":[3.9061606E-3,-1.7532788E-2,3.0502033E-1,-4.524351E-1,-3.1436675E-3,4.2312846E-1,-2.9027453E-2,-7.682025E-1,-7.762769E-2,-5.435221E-1,7.2768326E-3,5.0094675E-2,2.9174986E-1,-4.6816893E-2,-1.4685543E-2,2.7156433E-2,-2.1058133E-2,-5.3227484E-2,-1.186377E-2,3.0334089E-2,-9.382635E-5,-8.7248515E-3,2.689744E-2],"categories":[],"categories_nodes":[],"categories_segments":[],"categories_sizes":[],"default_left":[0,0,0,0,0,0,0,0,0,0,0,0,0,0,0,0,0,0,0,0,0,0,0],"id":27,"left_children":[1,3,5,7,9,11,-1,13,15,17,19,-1,21,-1,-1,-1,-1,-1,-1,-1,-1,-1,-1],"loss_changes":[7.7659087E0,6.659791E0,8.5372E0,3.5575633E0,6.284419E0,4.5117216E0,0E0,5.213289E-1,3.8880253E0,2.466632E0,6.05126E0,0E0,7.224855E0,0E0,0E0,0E0,0E0,0E0,0E0,0E0,0E0,0E0,0E0],"parents":[2147483647,0,0,1,1,2,2,3,3,4,4,5,5,7,7,8,8,9,9,10,10,12,12],"right_children":[2,4,6,8,10,12,-1,14,16,18,20,-1,22,-1,-1,-1,-1,-1,-1,-1,-1,-1,-1],"split_conditions":[1.5140685E0,-8.37714E1,6.666667E-2,4.6452487E2,-1.405661E0,1.5902487E2,-2.9027453E-2,-1.6666666E0,-2.5E-1,3.6602487E2,-8.178584E0,5.0094675E-2,3.9702487E2,-4.6816893E-2,-1.4685543E-2,2.7156433E-2,-2.1058133E-2,-5.3227484E-2,-1.186377E-2,3.0334089E-2,-9.382635E-5,-8.7248515E-3,2.689744E-2],"split_indices":[4,2,17,11,6,11,0,15,21,11,13,0,11,0,0,0,0,0,0,0,0,0,0],"split_type":[0,0,0,0,0,0,0,0,0,0,0,0,0,0,0,0,0,0,0,0,0,0,0],"sum_hessian":[1.1788826E3,1.0998556E3,7.9027054E1,3.3136417E1,1.0667191E3,7.068643E1,8.340623E0,1.6690994E1,1.6445423E1,2.0121035E1,1.0465981E3,1.1147278E1,5.9539154E1,1.0827263E1,5.863732E0,5.133287E0,1.1312137E1,5.927536E0,1.4193499E1,1.5581679E1,1.0310165E3,1.9973698E1,3.9565456E1],"tree_param":{"num_deleted":"0","num_feature":"22","num_nodes":"23","size_leaf_vector":"1"}},{"base_weights":[-3.0090168E-2,5.3169423E-1,-3.928442E-2,-0E0,8.1593287E-1,-7.715795E-2,1.0320969E-1,5.645851E-2,1.3059246E-2,-6.45232E-2,-6.084612E-1,1.4011051E-1,-4.165954E-1,-2.3929765E-3,-2.028784E-2,-5.0180357E-2,-8.781168E-3,4.821011E-3,4.19296E-2,-3.851522E-2,-1.7749887E-3],"categories":[],"categories_nodes":[],"categories_segments":[],"categories_sizes":[],"default_left":[0,0,0,0,0,0,0,0,0,0,0,0,0,0,0,0,0,0,0,0,0],"id":28,"left_children":[1,3,5,-1,7,9,11,-1,-1,13,15,17,19,-1,-1,-1,-1,-1,-1,-1,-1],"loss_changes":[5.7990713E0,2.7434578E0,6.197811E0,0E0,1.052259E0,5.7421765E0,4.504444E0,0E0,0E0,4.8272247E0,2.677343E0,6.3119693E0,1.6180568E0,0E0,0E0,0E0,0E0,0E0,0E0,0E0,0E0],"parents":[2147483647,0,0,1,1,2,2,4,4,5,5,6,6,9,9,10,10,11,11,12,12],"right_children":[2,4,6,-1,8,10,12,-1,-1,14,16,18,20,-1,-1,-1,-1,-1,-1,-1,-1],"split_conditions":[-8E-1,-1.1187495E1,2.8615208E1,-0E0,-8.867724E-1,2.4666667E0,1.2380196E0,5.645851E-2,1.3059246E-2,7E0,-1.4038067E0,9.4530857E-1,-6.804588E-1,-2.3929765E-3,-2.028784E-2,-5.0180357E-2,-8.781168E-3,4.821011E-3,4.19296E-2,-3.851522E-2,-1.7749887E-3],"split_indices":[20,2,2,0,4,18,8,0,0,19,1,8,4,0,0,0,0,0,0,0,0],"split_type":[0,0,0,0,0,0,0,0,0,0,0,0,0,0,0,0,0,0,0,0,0],"sum_hessian":[1.1653451E3,1.6974318E1,1.1483708E3,6.220931E0,1.07533865E1,9.1037067E2,2.3800015E2,5.6348844E0,5.118502E0,8.912389E2,1.9131748E1,2.2380469E2,1.4195477E1,8.522271E2,3.9011795E1,8.708113E0,1.04236355E1,2.1237445E2,1.1430225E1,6.152145E0,8.043331E0],"tree_param":{"num_deleted":"0","num_feature":"22","num_nodes":"21","size_leaf_vector":"1"}},{"base_weights":[5.701109E-3,-6.150734E-2,1.08329505E-1,-4.8440713E-2,-5.9072113E-1,5.400175E-2,9.397183E-2,-1.6659293E-1,1.834309E-2,-4.1960675E-2,-2.597947E-3,-1.22057304E-1,1.3949874E-1,-0E0,-2.0048799E-2,1.4069443E-2,-2.4098454E-3,2.13982E-2,-1.220257E-2,9.071823E-3,-9.869661E-3],"categories":[],"categories_nodes":[],"categories_segments":[],"categories_sizes":[],"default_left":[0,0,0,0,0,0,0,0,0,0,0,0,0,0,0,0,0,0,0,0,0],"id":29,"left_children":[1,3,5,7,9,-1,11,13,15,-1,-1,17,19,-1,-1,-1,-1,-1,-1,-1,-1],"loss_changes":[8.055104E0,4.497529E0,5.781043E0,5.4892044E0,1.6359577E0,0E0,4.535837E0,9.980394E0,7.768351E0,0E0,0E0,5.275832E0,5.4125986E0,0E0,0E0,0E0,0E0,0E0,0E0,0E0,0E0],"parents":[2147483647,0,0,1,1,2,2,3,3,4,4,6,6,7,7,8,8,11,11,12,12],"right_children":[2,4,6,8,10,-1,12,14,16,-1,-1,18,20,-1,-1,-1,-1,-1,-1,-1,-1],"split_conditions":[5.493669E-1,8.666667E-1,-2.2770886E0,-1.8363605E0,1E0,5.400175E-2,-7.1428573E-1,4.1702487E2,-3.5989067E-1,-4.1960675E-2,-2.597947E-3,-2.4444444E-1,5.555556E-1,-0E0,-2.0048799E-2,1.4069443E-2,-2.4098454E-3,2.13982E-2,-1.220257E-2,9.071823E-3,-9.869661E-3],"split_indices":[3,20,4,13,20,0,18,7,10,0,0,21,20,0,0,0,0,0,0,0,0],"split_type":[0,0,0,0,0,0,0,0,0,0,0,0,0,0,0,0,0,0,0,0,0],"sum_hessian":[1.1624702E3,6.997514E2,4.6271878E2,6.848777E2,1.4873739E1,5.1496572E0,4.5756912E2,2.494859E2,4.3539178E2,9.162168E0,5.711572E0,7.744105E1,3.8012808E2,1.4517432E2,1.0431158E2,8.8766335E1,3.4662546E2,1.2858902E1,6.4582146E1,3.3977682E2,4.035126E1],"tree_param":{"num_deleted":"0","num_feature":"22","num_nodes":"21","size_leaf_vector":"1"}},{"base_weights":[1.6656337E-2,2.7709195E-2,-4.9393168E-1,-1.9526005E-1,4.8118707E-2,2.98703E-3,-8.145927E-1,-3.797376E-1,3.910136E-1,4.1228227E-2,4.1263234E-2,-5.3587575E-2,-9.72366E-3,-2.3191191E-2,2.4307102E-2,-3.1732772E-3,3.1447984E-2,-1.9318538E-2,2.8249652E-3],"categories":[],"categories_nodes":[],"categories_segments":[],"categories_sizes":[],"default_left":[0,0,0,0,0,0,0,0,0,0,0,0,0,0,0,0,0,0,0],"id":30,"left_children":[1,3,5,7,9,-1,11,13,15,-1,17,-1,-1,-1,-1,-1,-1,-1,-1],"loss_changes":[6.4173656E0,5.182784E0,4.689343E0,1.039944E1,5.1709175E0,0E0,1.6854553E0,5.5505323E0,2.7603924E0,0E0,6.7084904E0,0E0,0E0,0E0,0E0,0E0,0E0,0E0,0E0],"parents":[2147483647,0,0,1,1,2,2,3,3,4,4,6,6,7,7,8,8,10,10],"right_children":[2,4,6,8,10,-1,12,14,16,-1,18,-1,-1,-1,-1,-1,-1,-1,-1],"split_conditions":[8.666667E-1,-1.8E0,-3E-1,1.6048269E0,-8.666667E-1,2.98703E-3,7.440249E2,7.937749E2,-2.4699786E0,4.1228227E-2,-6.1650577E0,-5.3587575E-2,-9.72366E-3,-2.3191191E-2,2.4307102E-2,-3.1732772E-3,3.1447984E-2,-1.9318538E-2,2.8249652E-3],"split_indices":[20,18,18,6,20,0,11,7,4,0,13,0,0,0,0,0,0,0,0],"split_type":[0,0,0,0,0,0,0,0,0,0,0,0,0,0,0,0,0,0,0],"sum_hessian":[1.175015E3,1.1520022E3,2.301276E1,9.383297E1,1.0581693E3,8.166469E0,1.4846292E1,7.229095E1,2.1542023E1,7.578873E0,1.0505903E3,9.409606E0,5.4366856E0,6.6841675E1,5.4492664E0,6.932618E0,1.4609404E1,3.4176464E1,1.01641394E3],"tree_param":{"num_deleted":"0","num_feature":"22","num_nodes":"19","size_leaf_vector":"1"}},{"base_weights":[1.3437747E-2,-5.7250172E-2,1.23692654E-1,3.0361965E-2,-6.367218E-2,3.5775068E-1,7.247975E-2,-3.7367213E-1,-3.8132794E-2,6.709815E-2,6.1525387E-1,3.022481E-1,1.2252681E-2,1.2911464E-2,-2.5973752E-2,3.797079E-3,-5.085845E-3,2.4885079E-2,-7.4686515E-3,4.2616203E-2,1.7882919E-2,4.2089056E-2,6.182017E-3,-6.9987937E-3,6.35026E-3],"categories":[],"categories_nodes":[],"categories_segments":[],"categories_sizes":[],"default_left":[0,0,0,0,0,0,0,0,0,0,0,0,0,0,0,0,0,0,0,0,0,0,0,0,0],"id":31,"left_children":[1,3,5,-1,7,9,11,13,15,17,19,21,23,-1,-1,-1,-1,-1,-1,-1,-1,-1,-1,-1,-1],"loss_changes":[9.194863E0,2.8122938E0,5.296358E0,0E0,5.3889713E0,5.674347E0,5.125723E0,5.085277E0,4.787137E0,3.9817414E0,1.6474161E0,6.8887343E0,5.3472137E0,0E0,0E0,0E0,0E0,0E0,0E0,0E0,0E0,0E0,0E0,0E0,0E0],"parents":[2147483647,0,0,1,1,2,2,4,4,5,5,6,6,7,7,8,8,9,9,10,10,11,11,12,12],"right_children":[2,4,6,-1,8,10,12,14,16,18,20,22,24,-1,-1,-1,-1,-1,-1,-1,-1,-1,-1,-1,-1],"split_conditions":[5.5015045E-1,3.6048874E-1,1.8002487E2,3.0361965E-2,4.2470947E-1,1.4202487E2,1.6269245E1,-1.4142357E0,-4.913946E-1,-1.1333333E0,1.2666667E0,-5.100159E-1,3.4860138E1,1.2911464E-2,-2.5973752E-2,3.797079E-3,-5.085845E-3,2.4885079E-2,-7.4686515E-3,4.2616203E-2,1.7882919E-2,4.2089056E-2,6.182017E-3,-6.9987937E-3,6.35026E-3],"split_indices":[3,3,7,0,3,11,2,4,10,17,15,4,2,0,0,0,0,0,0,0,0,0,0,0,0],"split_type":[0,0,0,0,0,0,0,0,0,0,0,0,0,0,0,0,0,0,0,0,0,0,0,0,0],"sum_hessian":[1.1736118E3,7.126531E2,4.609587E2,5.1807847E0,7.074723E2,7.992576E1,3.8103296E2,5.1321182E1,6.561511E2,3.9050472E1,4.0875286E1,7.657527E1,3.0445767E2,8.834144E0,4.2487038E1,2.3195303E2,4.241981E2,1.3401965E1,2.5648508E1,1.9072601E1,2.1802685E1,1.7425224E1,5.9150047E1,1.2889326E2,1.7556442E2],"tree_param":{"num_deleted":"0","num_feature":"22","num_nodes":"25","size_leaf_vector":"1"}},{"base_weights":[5.342684E-3,-3.040789E-2,1.6785498E-1,-9.901206E-3,-3.4511182E-1,8.50423E-3,2.6730406E-1,-4.0534166E-1,6.7820232E-3,-4.895503E-1,8.2767785E-2,2.6142752E-1,-2.915007E-1,-0E0,4.4270214E-1,2.7008269E-3,-2.9394766E-2,-7.5391616E-4,1.2737259E-2,-1.3735542E-2,-4.469143E-2,-8.281625E-3,2.2218566E-2,4.656848E-2,3.4397445E-4,-5.2189704E-2,-3.180267E-3,6.051402E-3,-4.4495344E-2,5.9161436E-2,1.6696507E-2],"categories":[],"categories_nodes":[],"categories_segments":[],"categories_sizes":[],"default_left":[0,0,0,0,0,0,0,0,0,0,0,0,0,0,0,0,0,0,0,0,0,0,0,0,0,0,0,0,0,0,0],"id":32,"left_children":[1,3,5,7,9,11,13,15,17,19,21,23,25,27,29,-1,-1,-1,-1,-1,-1,-1,-1,-1,-1,-1,-1,-1,-1,-1,-1],"loss_changes":[6.8277516E0,5.9576173E0,3.2240963E0,6.109989E0,3.74615E0,6.476132E0,6.17671E0,3.4417949E0,4.780157E0,2.9383888E0,1.4959424E0,7.5910435E0,5.9360304E0,5.8760214E0,5.1657867E0,0E0,0E0,0E0,0E0,0E0,0E0,0E0,0E0,0E0,0E0,0E0,0E0,0E0,0E0,0E0,0E0],"parents":[2147483647,0,0,1,1,2,2,3,3,4,4,5,5,6,6,7,7,8,8,9,9,10,10,11,11,12,12,13,13,14,14],"right_children":[2,4,6,8,10,12,14,16,18,20,22,24,26,28,30,-1,-1,-1,-1,-1,-1,-1,-1,-1,-1,-1,-1,-1,-1,-1,-1],"split_conditions":[5.888493E-1,5.7855403E-1,1E0,4.1013736E-1,5.3333336E-1,6.1932844E-1,3.7852487E2,3.7078905E-1,5.686786E-1,2.809524E-1,-2.0909888E-1,-3E0,6.240934E-1,3.5802487E2,5.928933E-1,2.7008269E-3,-2.9394766E-2,-7.5391616E-4,1.2737259E-2,-1.3735542E-2,-4.469143E-2,-8.281625E-3,2.2218566E-2,4.656848E-2,3.4397445E-4,-5.2189704E-2,-3.180267E-3,6.051402E-3,-4.4495344E-2,5.9161436E-2,1.6696507E-2],"split_indices":[3,3,19,3,17,3,7,3,3,20,13,19,3,7,3,0,0,0,0,0,0,0,0,0,0,0,0,0,0,0,0],"split_type":[0,0,0,0,0,0,0,0,0,0,0,0,0,0,0,0,0,0,0,0,0,0,0,0,0,0,0,0,0,0,0],"sum_hessian":[1.1614839E3,9.501906E2,2.1129327E2,8.9452216E2,5.5668446E1,8.3542854E1,1.2775042E2,3.6481426E1,8.580407E2,4.2385033E1,1.3283411E1,4.630229E1,3.7240562E1,5.0294903E1,7.745552E1,9.796292E0,2.6685135E1,7.875347E2,7.050602E1,2.9581347E1,1.2803687E1,7.3758545E0,5.9075565E0,1.1475879E1,3.4826412E1,7.315991E0,2.992457E1,4.4720726E1,5.574175E0,8.066109E0,6.9389404E1],"tree_param":{"num_deleted":"0","num_feature":"22","num_nodes":"31","size_leaf_vector":"1"}},{"base_weights":[2.1965919E-2,-8.260498E-3,2.140953E-1,1.9004655E-3,-5.616634E-1,4.0832543E-1,-1.995609E-2,-6.942465E-2,5.7634637E-2,-7.2595096E-1,-2.583948E-3,-7.4685E-2,5.171162E-1,-5.561928E-1,1.19144164E-1,-1.6499093E-2,-1.7227874E-4,1.4581594E-2,-4.6743118E-4,-4.7818545E-2,-1.490386E-2,1.6032219E-2,-2.6924286E-2,1.7916098E-2,4.6594266E-2,-4.5446973E-2,-0E0,1.3100925E-2,-2.0891959E-2],"categories":[],"categories_nodes":[],"categories_segments":[],"categories_sizes":[],"default_left":[0,0,0,0,0,0,0,0,0,0,0,0,0,0,0,0,0,0,0,0,0,0,0,0,0,0,0,0,0],"id":33,"left_children":[1,3,5,7,9,11,13,15,17,19,-1,21,23,25,27,-1,-1,-1,-1,-1,-1,-1,-1,-1,-1,-1,-1,-1,-1],"loss_changes":[6.877054E0,5.939787E0,7.5127754E0,3.926919E0,1.168498E0,4.9415503E0,5.708682E0,7.225136E0,8.909928E0,4.2645502E-1,0E0,3.2899387E0,3.8743057E0,2.8129358E0,4.467688E0,0E0,0E0,0E0,0E0,0E0,0E0,0E0,0E0,0E0,0E0,0E0,0E0,0E0,0E0],"parents":[2147483647,0,0,1,1,2,2,3,3,4,4,5,5,6,6,7,7,8,8,9,9,11,11,12,12,13,13,14,14],"right_children":[2,4,6,8,10,12,14,16,18,20,-1,22,24,26,28,-1,-1,-1,-1,-1,-1,-1,-1,-1,-1,-1,-1,-1,-1],"split_conditions":[3.8536686E1,8.666667E-1,4.5202487E2,-5.3425994E-2,7.342749E2,-1.2589931E0,7.192749E2,-1.0143338E0,-3.3567843E-1,-1.0998616E1,-2.583948E-3,-1.5770226E0,4.1252487E2,1.5333333E0,2.1428572E-1,-1.6499093E-2,-1.7227874E-4,1.4581594E-2,-4.6743118E-4,-4.7818545E-2,-1.490386E-2,1.6032219E-2,-2.6924286E-2,1.7916098E-2,4.6594266E-2,-4.5446973E-2,-0E0,1.3100925E-2,-2.0891959E-2],"split_indices":[2,20,7,6,11,1,11,1,8,2,0,1,11,15,21,0,0,0,0,0,0,0,0,0,0,0,0,0,0],"split_type":[0,0,0,0,0,0,0,0,0,0,0,0,0,0,0,0,0,0,0,0,0,0,0,0,0,0,0,0,0],"sum_hessian":[1.1651654E3,1.0053544E3,1.5981102E2,9.873194E2,1.8034986E1,8.80956E1,7.1715416E1,4.2904175E2,5.5827765E2,1.2578894E1,5.456093E0,1.5407358E1,7.268824E1,1.4894105E1,5.6821312E1,8.435134E1,3.446904E2,1.2515964E2,4.33118E2,6.613585E0,5.965309E0,7.9022956E0,7.5050626E0,5.4783714E1,1.7904528E1,8.356155E0,6.5379496E0,4.6020016E1,1.0801292E1],"tree_param":{"num_deleted":"0","num_feature":"22","num_nodes":"29","size_leaf_vector":"1"}},{"base_weights":[5.7707764E-3,-1.8755563E-1,3.3361647E-2,3.30201E-2,-2.363632E-1,-3.2757634E-1,4.8347432E-2,-4.831961E-1,-7.028651E-2,9.08394E-3,-5.1698726E-1,2.9344276E-1,9.311539E-3,-9.984258E-3,-4.5707565E-2,-3.187327E-2,1.4026935E-3,-3.7233703E-2,1.2961889E-2,-2.357216E-2,1.96763E-2,1.3626053E-3,-1.6543014E-2],"categories":[],"categories_nodes":[],"categories_segments":[],"categories_sizes":[],"default_left":[0,0,0,0,0,0,0,0,0,0,0,0,0,0,0,0,0,0,0,0,0,0,0],"id":34,"left_children":[1,3,5,-1,7,9,11,13,15,-1,17,19,21,-1,-1,-1,-1,-1,-1,-1,-1,-1,-1],"loss_changes":[6.0734134E0,5.810666E0,5.345437E0,0E0,5.2368846E0,4.033751E0,9.155436E0,5.742196E0,4.9676433E0,0E0,5.6460185E0,1.024304E1,4.996731E0,0E0,0E0,0E0,0E0,0E0,0E0,0E0,0E0,0E0,0E0],"parents":[2147483647,0,0,1,1,2,2,4,4,5,5,6,6,7,7,8,8,10,10,11,11,12,12],"right_children":[2,4,6,-1,8,10,12,14,16,-1,18,20,22,-1,-1,-1,-1,-1,-1,-1,-1,-1,-1],"split_conditions":[-1.4666667E0,-1.8666667E0,-6E0,3.30201E-2,3.5989067E-1,-6.0300007E0,-3E0,4.1503366E-2,4.286761E-2,9.08394E-3,-2.3921535E0,-6.1650577E0,1.2669895E0,-9.984258E-3,-4.5707565E-2,-3.187327E-2,1.4026935E-3,-3.7233703E-2,1.2961889E-2,-2.357216E-2,1.96763E-2,1.3626053E-3,-1.6543014E-2],"split_indices":[18,17,19,0,8,13,19,8,6,0,13,13,8,0,0,0,0,0,0,0,0,0,0],"split_type":[0,0,0,0,0,0,0,0,0,0,0,0,0,0,0,0,0,0,0,0,0,0,0],"sum_hessian":[1.150894E3,1.4075044E2,1.0101437E3,6.4209585E0,1.3432948E2,3.8106678E1,9.72037E2,5.204983E1,8.227965E1,9.626277E0,2.84804E1,1.3088995E2,8.4114703E2,3.297817E1,1.9071665E1,1.2099254E1,7.018039E1,2.2550537E1,5.929863E0,1.4137533E1,1.16752426E2,8.012776E2,3.986942E1],"tree_param":{"num_deleted":"0","num_feature":"22","num_nodes":"23","size_leaf_vector":"1"}},{"base_weights":[-8.931391E-3,-1.8875606E-1,3.5438895E-2,-2.5160006E-1,3.0185625E-1,5.062127E-1,2.023465E-2,4.1647315E-1,-2.911611E-1,-2.1412775E-2,6.495512E-1,-1.042682E-2,7.7224827E-1,-1.1725498E-1,6.7314744E-2,3.995503E-2,-0E0,-1.5925393E-2,2.233826E-2,1.9950705E-2,-2.130222E-2,-0E0,5.5395316E-2,-3.12955E-3,5.3771537E-2,2.1629457E-4,-1.4124595E-2,1.3681429E-2,1.1726738E-3],"categories":[],"categories_nodes":[],"categories_segments":[],"categories_sizes":[],"default_left":[0,0,0,0,0,0,0,0,0,0,0,0,0,0,0,0,0,0,0,0,0,0,0,0,0,0,0,0,0],"id":35,"left_children":[1,3,5,7,9,11,13,15,17,19,21,-1,23,25,27,-1,-1,-1,-1,-1,-1,-1,-1,-1,-1,-1,-1,-1,-1],"loss_changes":[9.475388E0,7.307144E0,6.474609E0,5.6108246E0,3.2812371E0,5.847814E0,5.907934E0,1.9850982E0,4.1066E0,2.537697E0,3.515326E0,0E0,5.9996147E0,4.7838383E0,6.0455284E0,0E0,0E0,0E0,0E0,0E0,0E0,0E0,0E0,0E0,0E0,0E0,0E0,0E0,0E0],"parents":[2147483647,0,0,1,1,2,2,3,3,4,4,5,5,6,6,7,7,8,8,9,9,10,10,12,12,13,13,14,14],"right_children":[2,4,6,8,10,12,14,16,18,20,22,-1,24,26,28,-1,-1,-1,-1,-1,-1,-1,-1,-1,-1,-1,-1,-1,-1],"split_conditions":[-2.9166718E1,1.6529603E-1,-2.5886131E1,-1.993994E0,2E-1,-9.737904E-1,-8.914552E-1,2.1333334E0,2.2E0,1.6529833E-1,2.8952487E2,-1.042682E-2,-7.3333335E-1,1.5793379E-1,-4.3238533E-1,3.995503E-2,-0E0,-1.5925393E-2,2.233826E-2,1.9950705E-2,-2.130222E-2,-0E0,5.5395316E-2,-3.12955E-3,5.3771537E-2,2.1629457E-4,-1.4124595E-2,1.3681429E-2,1.1726738E-3],"split_indices":[2,9,2,1,17,4,1,17,15,9,7,0,17,4,1,0,0,0,0,0,0,0,0,0,0,0,0,0,0],"split_type":[0,0,0,0,0,0,0,0,0,0,0,0,0,0,0,0,0,0,0,0,0,0,0,0,0,0,0,0,0],"sum_hessian":[1.1761136E3,2.3435011E2,9.4176355E2,2.0907533E2,2.527478E1,2.7424683E1,9.1433887E2,1.0449356E1,1.9862598E2,1.2838537E1,1.2436243E1,6.987711E0,2.0436972E1,2.3014058E2,6.8419824E2,5.218643E0,5.230713E0,1.9272957E2,5.896404E0,5.6971664E0,7.141371E0,5.9538574E0,6.4823856E0,5.216704E0,1.5220268E1,1.314027E2,9.8737885E1,1.1703816E2,5.671601E2],"tree_param":{"num_deleted":"0","num_feature":"22","num_nodes":"29","size_leaf_vector":"1"}},{"base_weights":[8.08688E-3,-2.8129082E-4,5.8262193E-1,-1.7739603E-1,2.5268752E-2,5.4399956E-2,1.8528022E-3,-4.266709E-1,-3.3891775E-2,3.998894E-1,6.950265E-3,1.6684901E-3,-3.0040523E-2,-2.4996098E-2,6.019827E-3,-4.3131197E-3,3.1160602E-2,-4.916852E-4,1.8578267E-2],"categories":[],"categories_nodes":[],"categories_segments":[],"categories_sizes":[],"default_left":[0,0,0,0,0,0,0,0,0,0,0,0,0,0,0,0,0,0,0],"id":36,"left_children":[1,3,5,7,9,-1,-1,11,13,15,17,-1,-1,-1,-1,-1,-1,-1,-1],"loss_changes":[5.8725705E0,5.2590413E0,4.2287364E0,5.008734E0,6.6458926E0,0E0,0E0,4.4933443E0,7.1212234E0,5.2358804E0,6.024092E0,0E0,0E0,0E0,0E0,0E0,0E0,0E0,0E0],"parents":[2147483647,0,0,1,1,2,2,3,3,4,4,7,7,8,8,9,9,10,10],"right_children":[2,4,6,8,10,-1,-1,12,14,16,18,-1,-1,-1,-1,-1,-1,-1,-1],"split_conditions":[2.2289374E0,-1.4666667E0,-8.427201E-1,3.2752487E2,-2.6E0,5.4399956E-2,1.8528022E-3,-2.5454545E0,-4.472255E1,-3.5333333E0,2.0915885E0,1.6684901E-3,-3.0040523E-2,-2.4996098E-2,6.019827E-3,-4.3131197E-3,3.1160602E-2,-4.916852E-4,1.8578267E-2],"split_indices":[10,18,1,7,15,0,0,18,2,15,1,0,0,0,0,0,0,0,0],"split_type":[0,0,0,0,0,0,0,0,0,0,0,0,0,0,0,0,0,0,0],"sum_hessian":[1.1598694E3,1.1433457E3,1.6523722E1,1.4586E2,9.9748566E2,7.585897E0,8.937825E0,5.129693E1,9.456307E1,4.42584E1,9.5322723E2,1.3519176E1,3.7777752E1,2.376899E1,7.079408E1,1.3419742E1,3.0838657E1,9.108985E2,4.2328777E1],"tree_param":{"num_deleted":"0","num_feature":"22","num_nodes":"19","size_leaf_vector":"1"}},{"base_weights":[-0E0,-1.7824905E-2,3.2829404E-1,-3.6670413E-2,2.2775227E-1,-1.8699102E-1,5.440059E-1,-2.0840524E-2,-4.0169266E-1,3.4321192E-1,-3.9673384E-2,1.6363464E-2,-3.8240913E-2,6.82241E-1,-1.4312212E-2,-2.003852E-2,-4.339655E-4,-3.268237E-2,1.2978013E-3,2.3825899E-2,-1.34037575E-2,7.529717E-3,4.1506045E-2],"categories":[],"categories_nodes":[],"categories_segments":[],"categories_sizes":[],"default_left":[0,0,0,0,0,0,0,0,0,0,0,0,0,0,0,0,0,0,0,0,0,0,0],"id":37,"left_children":[1,3,5,7,9,11,13,15,17,19,-1,-1,-1,21,-1,-1,-1,-1,-1,-1,-1,-1,-1],"loss_changes":[6.69729E0,4.996444E0,6.8273754E0,5.6910086E0,9.071346E0,5.6519585E0,5.266444E0,4.3325586E0,4.76455E0,5.9278517E0,0E0,0E0,0E0,2.3102016E0,0E0,0E0,0E0,0E0,0E0,0E0,0E0,0E0,0E0],"parents":[2147483647,0,0,1,1,2,2,3,3,4,4,5,5,6,6,7,7,8,8,9,9,13,13],"right_children":[2,4,6,8,10,12,14,16,18,20,-1,-1,-1,22,-1,-1,-1,-1,-1,-1,-1,-1,-1],"split_conditions":[6.680136E1,7.910249E2,7.3333335E-1,7.755249E2,2.168276E0,-3.2436788E-1,7.757749E2,-8.37714E1,2.0483859E-1,3.2786539E0,-3.9673384E-2,1.6363464E-2,-3.8240913E-2,3.6152487E2,-1.4312212E-2,-2.003852E-2,-4.339655E-4,-3.268237E-2,1.2978013E-3,2.3825899E-2,-1.34037575E-2,7.529717E-3,4.1506045E-2],"split_indices":[2,7,15,11,1,10,7,2,10,13,0,0,0,11,0,0,0,0,0,0,0,0,0],"split_type":[0,0,0,0,0,0,0,0,0,0,0,0,0,0,0,0,0,0,0,0,0,0,0],"sum_hessian":[1.1553474E3,1.0974454E3,5.7902046E1,1.021911E3,7.553439E1,1.6441763E1,4.1460285E1,9.817619E2,4.0149105E1,6.889825E1,6.636141E0,8.470984E0,7.970778E0,3.6211613E1,5.248671E0,2.8184288E1,9.535776E2,2.5667488E1,1.4481617E1,5.7415756E1,1.1482493E1,9.055484E0,2.7156128E1],"tree_param":{"num_deleted":"0","num_feature":"22","num_nodes":"23","size_leaf_vector":"1"}},{"base_weights":[-1.2719975E-2,-1.7957431E-3,-5.1381695E-1,1.34716425E-2,-2.520736E-1,1.0558821E-2,-8.509505E-1,-3.9346904E-1,2.6212526E-2,-5.1901954E-1,6.4343825E-2,-5.905E-2,-1.9517226E-2,2.5428485E-3,-2.6151946E-2,2.8661435E-2,9.1104425E-4,-4.2656172E-2,-3.8383596E-3,-8.5170055E-3,2.9839022E-2],"categories":[],"categories_nodes":[],"categories_segments":[],"categories_sizes":[],"default_left":[0,0,0,0,0,0,0,0,0,0,0,0,0,0,0,0,0,0,0,0,0],"id":38,"left_children":[1,3,5,7,9,-1,11,13,15,17,19,-1,-1,-1,-1,-1,-1,-1,-1,-1,-1],"loss_changes":[6.08545E0,4.46421E0,6.3037314E0,5.3740907E0,5.9418373E0,0E0,1.3192797E0,2.0677109E0,4.2384434E0,5.0029144E0,4.164729E0,0E0,0E0,0E0,0E0,0E0,0E0,0E0,0E0,0E0,0E0],"parents":[2147483647,0,0,1,1,2,2,3,3,4,4,6,6,7,7,8,8,9,9,10,10],"right_children":[2,4,6,8,10,-1,12,14,16,18,20,-1,-1,-1,-1,-1,-1,-1,-1,-1,-1],"split_conditions":[2.9333334E0,7E0,-4.5333333E0,-7.8602936E1,2.820513E-1,1.0558821E-2,-7.9452E-1,-8.588942E-1,-2.3157916E0,4.5502487E2,1.5140685E0,-5.905E-2,-1.9517226E-2,2.5428485E-3,-2.6151946E-2,2.8661435E-2,9.1104425E-4,-4.2656172E-2,-3.8383596E-3,-8.5170055E-3,2.9839022E-2],"split_indices":[17,19,15,2,21,0,1,1,10,11,4,0,0,0,0,0,0,0,0,0,0],"split_type":[0,0,0,0,0,0,0,0,0,0,0,0,0,0,0,0,0,0,0,0,0],"sum_hessian":[1.1579448E3,1.1351981E3,2.2746643E1,1.0689393E3,6.625877E1,6.8679295E0,1.5878714E1,3.0352787E1,1.0385865E3,3.6448685E1,2.981009E1,7.706816E0,8.171897E0,6.11874E0,2.4234047E1,1.3035448E1,1.0255511E3,1.9589777E1,1.6858908E1,2.051057E1,9.2995205E0],"tree_param":{"num_deleted":"0","num_feature":"22","num_nodes":"21","size_leaf_vector":"1"}},{"base_weights":[1.7621252E-4,5.786649E-1,-8.087484E-3,4.5269344E-2,1.3742362E-2,-1.8688079E-2,4.7111076E-1,-2.3555143E-1,7.9795247E-4,7.7615476E-1,-1.7783655E-2,1.3293311E-2,-1.7067326E-2,4.61981E-3,-2.9224842E-3,4.871542E-2,8.8208895E-3],"categories":[],"categories_nodes":[],"categories_segments":[],"categories_sizes":[],"default_left":[0,0,0,0,0,0,0,0,0,0,0,0,0,0,0,0,0],"id":39,"left_children":[1,3,5,-1,-1,7,9,11,13,15,-1,-1,-1,-1,-1,-1,-1],"loss_changes":[5.7060385E0,8.308892E-1,5.4574194E0,0E0,0E0,4.7445836E0,6.336277E0,5.029686E0,5.468625E0,1.3562002E0,0E0,0E0,0E0,0E0,0E0,0E0,0E0],"parents":[2147483647,0,0,1,1,2,2,5,5,6,6,7,7,8,8,9,9],"right_children":[2,4,6,-1,-1,8,10,12,14,16,-1,-1,-1,-1,-1,-1,-1],"split_conditions":[-8E-1,-1.4677455E0,6.704055E-1,4.5269344E-2,1.3742362E-2,-1.7333333E0,7.737749E2,-4.5833334E-1,-5.3030305E-2,1.2431201E0,-1.7783655E-2,1.3293311E-2,-1.7067326E-2,4.61981E-3,-2.9224842E-3,4.871542E-2,8.8208895E-3],"split_indices":[20,4,3,0,0,18,11,20,21,4,0,0,0,0,0,0,0],"split_type":[0,0,0,0,0,0,0,0,0,0,0,0,0,0,0,0,0],"sum_hessian":[1.1319612E3,1.5822318E1,1.1161389E3,5.8767605E0,9.945558E0,1.0939436E3,2.2195288E1,9.139247E1,1.0025511E3,1.6699831E1,5.495456E0,1.4836325E1,7.6556145E1,3.9686624E2,6.056849E2,1.1456376E1,5.2434545E0],"tree_param":{"num_deleted":"0","num_feature":"22","num_nodes":"17","size_leaf_vector":"1"}},{"base_weights":[-1.9352477E-2,-8.075113E-2,7.3011346E-2,-4.5942292E-1,-5.297776E-2,4.8911408E-2,8.0331194E-1,-1.7472805E-1,-6.5823816E-2,-4.187699E-2,-3.6531877E-2,2.4950017E-1,-3.079301E-3,5.5796433E-2,7.4952506E-3,2.099567E-2,-1.8020842E-2,2.799405E-2,-2.7186056E-3,4.2270314E-2,7.527231E-3,-4.0183507E-2,1.036358E-3],"categories":[],"categories_nodes":[],"categories_segments":[],"categories_sizes":[],"default_left":[0,0,0,0,0,0,0,0,0,0,0,0,0,0,0,0,0,0,0,0,0,0,0],"id":40,"left_children":[1,3,5,7,9,11,13,15,-1,17,-1,19,21,-1,-1,-1,-1,-1,-1,-1,-1,-1,-1],"loss_changes":[6.5606203E0,7.056258E0,7.6048746E0,1.032373E1,4.490135E0,4.771163E0,2.0433064E0,4.1356173E0,0E0,4.616775E0,0E0,4.9010334E0,7.1340656E0,0E0,0E0,0E0,0E0,0E0,0E0,0E0,0E0,0E0,0E0],"parents":[2147483647,0,0,1,1,2,2,3,3,4,4,5,5,6,6,7,7,9,9,11,11,12,12],"right_children":[2,4,6,8,10,12,14,16,-1,18,-1,20,22,-1,-1,-1,-1,-1,-1,-1,-1,-1,-1],"split_conditions":[5.493669E-1,1.2602488E2,1.8E0,1.7482518E-1,2.4666667E0,2.820249E2,4.6029046E-2,-1.3269231E0,-6.5823816E-2,-1.9383335E0,-3.6531877E-2,-2E0,2.9252487E2,5.5796433E-2,7.4952506E-3,2.099567E-2,-1.8020842E-2,2.799405E-2,-2.7186056E-3,4.2270314E-2,7.527231E-3,-4.0183507E-2,1.036358E-3],"split_indices":[3,7,17,20,18,11,4,18,0,8,0,19,7,0,0,0,0,0,0,0,0,0,0],"split_type":[0,0,0,0,0,0,0,0,0,0,0,0,0,0,0,0,0,0,0,0,0,0,0],"sum_hessian":[1.154147E3,6.9661365E2,4.5753333E2,4.530909E1,6.5130457E2,4.4461273E2,1.2920607E1,3.5352882E1,9.956208E0,6.4257806E2,8.726462E0,9.271625E1,3.5189648E2,7.7429695E0,5.1776366E0,7.47172E0,2.788116E1,1.1366169E1,6.312119E2,1.140995E1,8.13063E1,9.822383E0,3.420741E2],"tree_param":{"num_deleted":"0","num_feature":"22","num_nodes":"23","size_leaf_vector":"1"}},{"base_weights":[-4.7505577E-3,-4.4625532E-2,1.1535551E-1,2.264854E-2,-1.4437543E-1,-2.9578316E-1,1.5822624E-1,-9.8407075E-2,9.768938E-2,-3.535571E-1,-5.1353723E-2,1.8529883E-1,-6.971895E-1,4.1933697E-2,1.3589227E-1,4.43201E-3,-9.902267E-3,5.852923E-3,-2.4050629E-2,-4.6888273E-2,-1.2414024E-2,1.4136471E-2,-6.93556E-3,-1.1413248E-2,3.5925366E-2,-6.131344E-2,-8.656182E-4,-4.25219E-5,1.1870351E-2],"categories":[],"categories_nodes":[],"categories_segments":[],"categories_sizes":[],"default_left":[0,0,0,0,0,0,0,0,0,0,0,0,0,0,0,0,0,0,0,0,0,0,0,0,0,0,0,0,0],"id":41,"left_children":[1,3,5,7,9,11,13,15,17,19,21,23,25,-1,27,-1,-1,-1,-1,-1,-1,-1,-1,-1,-1,-1,-1,-1,-1],"loss_changes":[5.5495973E0,5.959579E0,5.0462685E0,4.7561183E0,6.725743E0,5.4831004E0,3.3826265E0,3.760766E0,3.5243227E0,5.82018E0,7.261179E0,3.1063466E0,4.8130364E0,0E0,3.6682496E0,0E0,0E0,0E0,0E0,0E0,0E0,0E0,0E0,0E0,0E0,0E0,0E0,0E0,0E0],"parents":[2147483647,0,0,1,1,2,2,3,3,4,4,5,5,6,6,7,7,8,8,9,9,10,10,11,11,12,12,14,14],"right_children":[2,4,6,8,10,12,14,16,18,20,22,24,26,-1,28,-1,-1,-1,-1,-1,-1,-1,-1,-1,-1,-1,-1,-1,-1],"split_conditions":[2.4042503E1,9.193094E-2,-9.853498E-1,-8.791209E-1,-2.6666668E-1,-1.4677455E0,1.3402487E2,-5.6669846E-2,2.3333333E0,-1.3760381E0,3.3333334E-1,7.185249E2,-4.5833334E-1,4.1933697E-2,3.9152487E2,4.43201E-3,-9.902267E-3,5.852923E-3,-2.4050629E-2,-4.6888273E-2,-1.2414024E-2,1.4136471E-2,-6.93556E-3,-1.1413248E-2,3.5925366E-2,-6.131344E-2,-8.656182E-4,-4.25219E-5,1.1870351E-2],"split_indices":[2,4,4,18,15,4,7,1,18,1,15,7,20,0,11,0,0,0,0,0,0,0,0,0,0,0,0,0,0],"split_type":[0,0,0,0,0,0,0,0,0,0,0,0,0,0,0,0,0,0,0,0,0,0,0,0,0,0,0,0,0],"sum_hessian":[1.1640764E3,8.775297E2,2.8654672E2,5.2154553E2,3.5598422E2,2.5399376E1,2.6114734E2,1.9691254E2,3.24633E2,1.0705943E2,2.489248E2,1.1231399E1,1.4167977E1,6.426059E0,2.5472127E2,6.673173E1,1.301808E2,3.1572736E2,8.9056225E0,1.4414192E1,9.264524E1,4.994789E1,1.9897691E2,6.119339E0,5.1120596E0,7.10207E0,7.0659075E0,1.0685344E2,1.4786784E2],"tree_param":{"num_deleted":"0","num_feature":"22","num_nodes":"29","size_leaf_vector":"1"}},{"base_weights":[-2.5081106E-2,-2.0572864E-1,-6.4477245E-3,2.2259533E-1,-3.0606604E-1,-2.5753845E-2,1.9078355E-1,5.361121E-1,-8.845549E-3,1.944068E-1,-4.1244504E-1,-3.910193E-3,-2.3678103E-1,3.529887E-1,-2.40822E-1,4.782222E-2,-0E0,-7.7480474E-3,3.8189556E-2,1.1468384E-3,-2.840291E-2,-1.3232853E-3,1.788542E-2,3.3675816E-2,-1.8888954E-2,1.6701203E-4,2.7789492E-2,4.16585E-3,-3.2739956E-2],"categories":[],"categories_nodes":[],"categories_segments":[],"categories_sizes":[],"default_left":[0,0,0,0,0,0,0,0,0,0,0,0,0,0,0,0,0,0,0,0,0,0,0,0,0,0,0,0,0],"id":42,"left_children":[1,3,5,7,9,11,13,15,-1,17,19,21,23,25,27,-1,-1,-1,-1,-1,-1,-1,-1,-1,-1,-1,-1,-1,-1],"loss_changes":[3.7666466E0,4.625561E0,3.9085295E0,2.7263074E0,4.7942934E0,4.2887216E0,6.5219946E0,2.2588983E0,0E0,3.410296E0,5.1961136E0,6.94098E0,1.13469305E1,4.504595E0,3.6479096E0,0E0,0E0,0E0,0E0,0E0,0E0,0E0,0E0,0E0,0E0,0E0,0E0,0E0,0E0],"parents":[2147483647,0,0,1,1,2,2,3,3,4,4,5,5,6,6,7,7,9,9,10,10,11,11,12,12,13,13,14,14],"right_children":[2,4,6,8,10,12,14,16,-1,18,20,22,24,26,28,-1,-1,-1,-1,-1,-1,-1,-1,-1,-1,-1,-1,-1,-1],"split_conditions":[-1.7333333E0,-4.1025642E-1,1.6704028E0,1.350989E0,-5.591452E-1,5.555556E-1,7.175249E2,-1.1372764E0,-8.845549E-3,2.0454545E-1,-2.8666666E0,1.5140685E0,3.4822308E-2,3.2152487E2,-5.694444E-1,4.782222E-2,-0E0,-7.7480474E-3,3.8189556E-2,1.1468384E-3,-2.840291E-2,-1.3232853E-3,1.788542E-2,3.3675816E-2,-1.8888954E-2,1.6701203E-4,2.7789492E-2,4.16585E-3,-3.2739956E-2],"split_indices":[18,20,1,8,1,20,11,4,0,20,18,4,4,11,17,0,0,0,0,0,0,0,0,0,0,0,0,0,0],"split_type":[0,0,0,0,0,0,0,0,0,0,0,0,0,0,0,0,0,0,0,0,0,0,0,0,0,0,0,0,0],"sum_hessian":[1.1499138E3,1.04072624E2,1.0458412E3,1.8575443E1,8.549718E1,9.5569666E2,9.0144516E1,1.0917459E1,7.6579833E0,1.4018374E1,7.1478806E1,8.691209E2,8.657575E1,6.649509E1,2.3649435E1,5.213661E0,5.703798E0,8.594556E0,5.4238186E0,1.8199343E1,5.327946E1,8.202672E2,4.885367E1,1.0629259E1,7.594649E1,2.5688173E1,4.0806908E1,1.3034514E1,1.0614921E1],"tree_param":{"num_deleted":"0","num_feature":"22","num_nodes":"29","size_leaf_vector":"1"}},{"base_weights":[-1.4800992E-3,1.3590694E-2,-3.4907573E-1,-2.3843229E-1,2.9056244E-2,1.4271328E-2,-4.492964E-1,2.0267548E-1,-3.709151E-1,2.2505385E-1,2.800034E-3,-1.13516696E-1,-7.459251E-1,-2.1995151E-2,3.576989E-2,-4.9722694E-2,-1.0924031E-2,2.061991E-2,-5.3671785E-3,-5.107203E-3,2.1611168E-3,-3.0245652E-2,1.0889842E-2,-6.807824E-3,-6.014919E-2],"categories":[],"categories_nodes":[],"categories_segments":[],"categories_sizes":[],"default_left":[0,0,0,0,0,0,0,0,0,0,0,0,0,0,0,0,0,0,0,0,0,0,0,0,0],"id":43,"left_children":[1,3,5,7,9,-1,11,13,15,17,19,21,23,-1,-1,-1,-1,-1,-1,-1,-1,-1,-1,-1,-1],"loss_changes":[6.2077208E0,4.2044578E0,3.3446379E0,3.7859125E0,5.251509E0,0E0,3.8319225E0,5.100716E0,3.8288484E0,7.7269583E0,3.8895936E0,3.9783278E0,5.353512E0,0E0,0E0,0E0,0E0,0E0,0E0,0E0,0E0,0E0,0E0,0E0,0E0],"parents":[2147483647,0,0,1,1,2,2,3,3,4,4,6,6,7,7,8,8,9,9,10,10,11,11,12,12],"right_children":[2,4,6,8,10,-1,12,14,16,18,20,22,24,-1,-1,-1,-1,-1,-1,-1,-1,-1,-1,-1,-1],"split_conditions":[7.1428573E-1,-6E0,1.5055784E-2,-1.8512315E0,-4.1025642E-1,1.4271328E-2,-7.557954E-2,8E-1,-1.4548544E0,9.5913863E-1,-7.9452E-1,9.0805393E-1,-3E-1,-2.1995151E-2,3.576989E-2,-4.9722694E-2,-1.0924031E-2,2.061991E-2,-5.3671785E-3,-5.107203E-3,2.1611168E-3,-3.0245652E-2,1.0889842E-2,-6.807824E-3,-6.014919E-2],"split_indices":[20,19,4,4,20,0,1,17,1,6,1,4,18,0,0,0,0,0,0,0,0,0,0,0,0],"split_type":[0,0,0,0,0,0,0,0,0,0,0,0,0,0,0,0,0,0,0,0,0,0,0,0,0],"sum_hessian":[1.1510828E3,1.1027911E3,4.8291553E1,6.1057964E1,1.0417332E3,5.6546574E0,4.2636898E1,1.3108546E1,4.7949417E1,1.199222E2,9.2181104E2,2.1437845E1,2.1199053E1,5.447814E0,7.6607323E0,7.6898603E0,4.0259556E1,7.750355E1,4.241866E1,2.524655E2,6.693455E2,8.908424E0,1.2529422E1,1.0107001E1,1.1092051E1],"tree_param":{"num_deleted":"0","num_feature":"22","num_nodes":"25","size_leaf_vector":"1"}},{"base_weights":[1.2913559E-2,-2.299089E-2,1.23804264E-1,-8.113329E-3,-5.316231E-1,3.0225122E-1,1.4964897E-2,8.731392E-3,-3.6584872E-1,-8.772028E-1,-0E0,-4.001702E-2,3.738116E-1,-2.2641875E-2,4.0375162E-2,1.9534437E-3,-7.473375E-3,-5.0487805E-2,-7.064496E-3,-6.307205E-2,-1.5994554E-2,2.311482E-2,-1.2335509E-2,1.0690057E-2,-8.352064E-3],"categories":[],"categories_nodes":[],"categories_segments":[],"categories_sizes":[],"default_left":[0,0,0,0,0,0,0,0,0,0,0,0,0,0,0,0,0,0,0,0,0,0,0,0,0],"id":44,"left_children":[1,3,5,7,9,11,13,15,17,19,-1,-1,21,23,-1,-1,-1,-1,-1,-1,-1,-1,-1,-1,-1],"loss_changes":[4.630911E0,6.2787495E0,5.3678117E0,5.2635913E0,4.640248E0,8.457081E0,5.766056E0,3.8143284E0,4.9618125E0,1.956399E0,0E0,0E0,5.753002E0,5.8817616E0,0E0,0E0,0E0,0E0,0E0,0E0,0E0,0E0,0E0,0E0,0E0],"parents":[2147483647,0,0,1,1,2,2,3,3,4,4,5,5,6,6,7,7,8,8,9,9,12,12,13,13],"right_children":[2,4,6,8,10,12,14,16,18,20,-1,-1,22,24,-1,-1,-1,-1,-1,-1,-1,-1,-1,-1,-1],"split_conditions":[1.3333334E0,7E0,-1.0332543E0,1.4E0,4.6202487E2,0E0,2.129117E0,1.6529603E-1,-9.5381624E-1,8E0,-0E0,-4.001702E-2,2.7333333E0,1.8666667E0,4.0375162E-2,1.9534437E-3,-7.473375E-3,-5.0487805E-2,-7.064496E-3,-6.307205E-2,-1.5994554E-2,2.311482E-2,-1.2335509E-2,1.0690057E-2,-8.352064E-3],"split_indices":[15,19,8,18,7,19,1,5,8,19,0,0,18,15,0,0,0,0,0,0,0,0,0,0,0],"split_type":[0,0,0,0,0,0,0,0,0,0,0,0,0,0,0,0,0,0,0,0,0,0,0,0,0],"sum_hessian":[1.1487408E3,8.6496436E2,2.8377643E2,8.423252E2,2.2639145E1,1.0509597E2,1.7868047E2,8.040431E2,3.8282146E1,1.3712723E1,8.926421E0,5.358698E0,9.9737274E1,1.709111E2,7.7693634E0,6.77948E2,1.2609509E2,8.418745E0,2.9863401E1,6.837802E0,6.874921E0,8.821833E1,1.1518943E1,6.330718E1,1.0760393E2],"tree_param":{"num_deleted":"0","num_feature":"22","num_nodes":"25","size_leaf_vector":"1"}},{"base_weights":[7.925906E-3,-1.1816077E-1,4.4920612E-2,3.898443E-2,-2.4233142E-1,2.6245205E-2,3.5430378E-1,2.2046821E-1,-1.8145238E-1,-9.2257105E-2,-4.69672E-1,4.1135006E-2,-3.5326228E-1,5.588509E-1,-3.2446587E-1,-1.7351968E-2,1.5492151E-2,-2.7401585E-2,8.627091E-3,1.9705498E-3,-1.8843219E-2,-5.0223484E-3,-3.507183E-2,3.8696078E-3,-5.732671E-3,-3.2900464E-2,-0E0,4.0780567E-2,1.1657416E-2,-3.3194136E-2,-0E0],"categories":[],"categories_nodes":[],"categories_segments":[],"categories_sizes":[],"default_left":[0,0,0,0,0,0,0,0,0,0,0,0,0,0,0,0,0,0,0,0,0,0,0,0,0,0,0,0,0,0,0],"id":45,"left_children":[1,3,5,7,9,11,13,15,17,19,21,23,25,27,29,-1,-1,-1,-1,-1,-1,-1,-1,-1,-1,-1,-1,-1,-1,-1,-1],"loss_changes":[5.3536E0,5.1667194E0,4.9793787E0,4.597955E0,4.678979E0,4.649902E0,7.1603103E0,3.3307707E0,6.839372E0,3.5900679E0,4.3842707E0,4.6110888E0,3.588467E0,2.5394897E0,1.5032879E0,0E0,0E0,0E0,0E0,0E0,0E0,0E0,0E0,0E0,0E0,0E0,0E0,0E0,0E0,0E0,0E0],"parents":[2147483647,0,0,1,1,2,2,3,3,4,4,5,5,6,6,7,7,8,8,9,9,10,10,11,11,12,12,13,13,14,14],"right_children":[2,4,6,8,10,12,14,16,18,20,22,24,26,28,30,-1,-1,-1,-1,-1,-1,-1,-1,-1,-1,-1,-1,-1,-1,-1,-1],"split_conditions":[4.8956567E-1,1.8129541E-1,7.970249E2,5.796304E-2,4.116909E-1,7.855249E2,3.6666667E-1,-1.3268478E0,-1.0032114E-1,-1.2820514E-1,-2.6190478E-1,1.6529603E-1,-1.0032114E-1,7.437525E-2,-3.5919154E-1,-1.7351968E-2,1.5492151E-2,-2.7401585E-2,8.627091E-3,1.9705498E-3,-1.8843219E-2,-5.0223484E-3,-3.507183E-2,3.8696078E-3,-5.732671E-3,-3.2900464E-2,-0E0,4.0780567E-2,1.1657416E-2,-3.3194136E-2,-0E0],"split_indices":[3,6,7,10,1,11,20,6,1,21,20,5,1,6,1,0,0,0,0,0,0,0,0,0,0,0,0,0,0,0,0],"split_type":[0,0,0,0,0,0,0,0,0,0,0,0,0,0,0,0,0,0,0,0,0,0,0,0,0,0,0,0,0,0,0],"sum_hessian":[1.153436E3,2.5809113E2,8.9534485E2,1.12444885E2,1.4564624E2,8.469227E2,4.842215E1,6.2915318E1,4.952957E1,8.990344E1,5.5742798E1,8.170743E2,2.9848429E1,3.791098E1,1.051117E1,7.406775E0,5.550854E1,2.4756868E1,2.4772703E1,6.085484E1,2.9048607E1,2.2881294E1,3.2861504E1,6.658269E2,1.5124736E2,1.617917E1,1.3669258E1,1.9499601E1,1.8411379E1,5.160459E0,5.350711E0],"tree_param":{"num_deleted":"0","num_feature":"22","num_nodes":"31","size_leaf_vector":"1"}},{"base_weights":[-0E0,-1.9799134E-2,2.3593988E-1,2.955055E-1,-3.4783904E-2,-2.680578E-2,4.0276676E-1,6.623248E-1,-1.3823457E-1,-2.805016E-1,-1.4509484E-3,4.1109467E-1,-7.2437984E-1,5.4247314E-1,-8.542108E-3,4.0008046E-2,5.4166852E-3,9.538195E-3,-3.00799E-2,-2.094896E-3,-2.2367103E-2,-5.2189676E-4,2.7971596E-2,-0E0,3.298924E-2,-6.213081E-2,2.3826326E-3,5.905163E-2,1.7007466E-2],"categories":[],"categories_nodes":[],"categories_segments":[],"categories_sizes":[],"default_left":[0,0,0,0,0,0,0,0,0,0,0,0,0,0,0,0,0,0,0,0,0,0,0,0,0,0,0,0,0],"id":46,"left_children":[1,3,5,7,9,11,13,15,17,19,21,23,25,27,-1,-1,-1,-1,-1,-1,-1,-1,-1,-1,-1,-1,-1,-1,-1],"loss_changes":[5.3333826E0,4.941486E0,4.067645E0,7.8623896E0,8.254613E0,1.0856035E1,4.703038E0,1.4724398E0,3.647661E0,4.539613E0,4.2953377E0,1.8817334E0,6.2318E0,4.6953154E0,0E0,0E0,0E0,0E0,0E0,0E0,0E0,0E0,0E0,0E0,0E0,0E0,0E0,0E0,0E0],"parents":[2147483647,0,0,1,1,2,2,3,3,4,4,5,5,6,6,7,7,8,8,9,9,10,10,11,11,12,12,13,13],"right_children":[2,4,6,8,10,12,14,16,18,20,22,24,26,28,-1,-1,-1,-1,-1,-1,-1,-1,-1,-1,-1,-1,-1,-1,-1],"split_conditions":[3.3333334E-1,-2.2852035E0,2.5858958E0,1.3333334E0,-1.305019E0,3E0,1E1,2.2E0,-4.650891E-1,3.7502487E2,8.528769E1,-1E0,4.624547E-1,-2.4666667E0,-8.542108E-3,4.0008046E-2,5.4166852E-3,9.538195E-3,-3.00799E-2,-2.094896E-3,-2.2367103E-2,-5.2189676E-4,2.7971596E-2,-0E0,3.298924E-2,-6.213081E-2,2.3826326E-3,5.905163E-2,1.7007466E-2],"split_indices":[21,1,13,17,1,19,19,15,4,11,2,17,4,17,0,0,0,0,0,0,0,0,0,0,0,0,0,0,0],"split_type":[0,0,0,0,0,0,0,0,0,0,0,0,0,0,0,0,0,0,0,0,0,0,0,0,0,0,0,0,0],"sum_hessian":[1.1575477E3,1.070284E3,8.726375E1,4.619415E1,1.0240898E3,3.305137E1,5.4212376E1,2.536685E1,2.08273E1,1.196513E2,9.044386E2,2.0116926E1,1.29344425E1,4.433921E1,9.873166E0,1.9234339E1,6.1325116E0,1.1892555E1,8.934744E0,5.0984623E1,6.866668E1,8.920187E2,1.2419911E1,8.596209E0,1.1520718E1,7.762124E0,5.172319E0,8.9098835E0,3.542933E1],"tree_param":{"num_deleted":"0","num_feature":"22","num_nodes":"29","size_leaf_vector":"1"}},{"base_weights":[-1.0510908E-2,-3.2145262E-1,9.121661E-3,3.2946162E-3,-3.9040646E-1,2.225752E-3,3.3300713E-2,-1.2547351E-1,-5.1792616E-1,8.151368E-2,-5.293649E-2,-2.3743154E-2,1.811201E-2,-3.3784885E-2,-9.818559E-3,-7.972042E-3,7.2816457E-3,-9.76558E-3,1.5698959E-3],"categories":[],"categories_nodes":[],"categories_segments":[],"categories_sizes":[],"default_left":[0,0,0,0,0,0,0,0,0,0,0,0,0,0,0,0,0,0,0],"id":47,"left_children":[1,3,5,-1,7,9,-1,11,13,15,17,-1,-1,-1,-1,-1,-1,-1,-1],"loss_changes":[7.2700386E0,2.0768328E0,4.6252074E0,0E0,1.6833773E0,4.766308E0,0E0,4.062928E0,1.4488945E0,6.9606485E0,7.73705E0,0E0,0E0,0E0,0E0,0E0,0E0,0E0,0E0],"parents":[2147483647,0,0,1,1,2,2,4,4,5,5,7,7,8,8,9,9,10,10],"right_children":[2,4,6,-1,8,10,-1,12,14,16,18,-1,-1,-1,-1,-1,-1,-1,-1],"split_conditions":[-5.9017223E1,3.7078905E-1,6.897549E-1,3.2946162E-3,-1.25E0,-5.3030305E-2,3.3300713E-2,-1.7333333E0,4.3573874E-1,-1.5333333E0,1.8181819E-1,-2.3743154E-2,1.811201E-2,-3.3784885E-2,-9.818559E-3,-7.972042E-3,7.2816457E-3,-9.76558E-3,1.5698959E-3],"split_indices":[2,3,3,0,18,21,0,18,1,18,18,0,0,0,0,0,0,0,0],"split_type":[0,0,0,0,0,0,0,0,0,0,0,0,0,0,0,0,0,0,0],"sum_hessian":[1.1638524E3,6.9719864E1,1.0941326E3,9.446691E0,6.0273174E1,1.0845122E3,9.620415E0,2.150326E1,3.8769917E1,4.484767E2,6.3603546E2,1.3140893E1,8.362367E0,2.4226736E1,1.45431795E1,9.230771E1,3.56169E2,2.3831683E2,3.9771863E2],"tree_param":{"num_deleted":"0","num_feature":"22","num_nodes":"19","size_leaf_vector":"1"}},{"base_weights":[-1.7132672E-2,-8.781805E-3,-4.1514575E-1,-1.3110158E-2,3.599685E-2,-0E0,-6.5709245E-1,-1.9543363E-1,8.789693E-3,-3.7278451E-3,-4.520118E-2,-1.5713617E-2,4.320389E-3,-2.4620125E-3,3.4416185E-3],"categories":[],"categories_nodes":[],"categories_segments":[],"categories_sizes":[],"default_left":[0,0,0,0,0,0,0,0,0,0,0,0,0,0,0],"id":48,"left_children":[1,3,5,7,-1,-1,9,11,13,-1,-1,-1,-1,-1,-1],"loss_changes":[3.6707375E0,3.2753768E0,2.5215058E0,4.6563864E0,0E0,0E0,1.5911407E0,4.327591E0,3.5615077E0,0E0,0E0,0E0,0E0,0E0,0E0],"parents":[2147483647,0,0,1,1,2,2,3,3,6,6,7,7,8,8],"right_children":[2,4,6,8,-1,-1,10,12,14,-1,-1,-1,-1,-1,-1],"split_conditions":[8.666667E-1,2.8255424E0,-5.4545455E-2,-1.2669895E0,3.599685E-2,-0E0,-8E-1,1.8E0,3.8752487E2,-3.7278451E-3,-4.520118E-2,-1.5713617E-2,4.320389E-3,-2.4620125E-3,3.4416185E-3],"split_indices":[20,8,21,10,0,0,17,17,11,0,0,0,0,0,0],"split_type":[0,0,0,0,0,0,0,0,0,0,0,0,0,0,0],"sum_hessian":[1.1682643E3,1.1464877E3,2.1776598E1,1.1413765E3,5.111262E0,7.845143E0,1.3931456E1,1.2399387E2,1.01738257E3,5.1377573E0,8.793698E0,8.838516E1,3.560871E1,5.1321954E2,5.0416302E2],"tree_param":{"num_deleted":"0","num_feature":"22","num_nodes":"15","size_leaf_vector":"1"}},{"base_weights":[-1.5607482E-5,-6.1320677E-2,9.212431E-2,-1.1178138E-2,-2.0416354E-1,4.3240845E-2,7.849462E-2,3.028431E-1,-5.1309865E-2,4.202727E-1,-2.5625202E-1,5.0266862E-2,3.7128845E-1,-6.3830237E-3,2.5454843E-2,-1.3618561E-2,4.97957E-4,-0E0,3.660321E-2,-6.2366975E-3,-2.8681427E-2,1.0384706E-2,-1.2945815E-4,-0E0,2.6007751E-2],"categories":[],"categories_nodes":[],"categories_segments":[],"categories_sizes":[],"default_left":[0,0,0,0,0,0,0,0,0,0,0,0,0,0,0,0,0,0,0,0,0,0,0,0,0],"id":49,"left_children":[1,3,5,7,9,-1,11,13,15,17,19,21,23,-1,-1,-1,-1,-1,-1,-1,-1,-1,-1,-1,-1],"loss_changes":[6.55802E0,4.9184217E0,4.3226223E0,6.484284E0,5.872535E0,0E0,3.5344706E0,5.4083714E0,6.4489326E0,1.6667624E0,6.561634E0,3.5819097E0,2.3455882E0,0E0,0E0,0E0,0E0,0E0,0E0,0E0,0E0,0E0,0E0,0E0,0E0],"parents":[2147483647,0,0,1,1,2,2,3,3,4,4,6,6,7,7,8,8,9,9,10,10,11,11,12,12],"right_children":[2,4,6,8,10,-1,12,14,16,18,20,22,24,-1,-1,-1,-1,-1,-1,-1,-1,-1,-1,-1,-1],"split_conditions":[5.493669E-1,1.2945219E0,-2.8666666E0,-4.236592E-1,-2.1333334E0,4.3240845E-2,7.9058136E1,-2.696548E1,9.390084E-2,1.2045043E0,5.296847E-1,1.6269245E1,-1.2816976E0,-6.3830237E-3,2.5454843E-2,-1.3618561E-2,4.97957E-4,-0E0,3.660321E-2,-6.2366975E-3,-2.8681427E-2,1.0384706E-2,-1.2945815E-4,-0E0,2.6007751E-2],"split_indices":[3,13,15,8,17,0,2,2,8,4,3,2,1,0,0,0,0,0,0,0,0,0,0,0,0],"split_type":[0,0,0,0,0,0,0,0,0,0,0,0,0,0,0,0,0,0,0,0,0,0,0,0,0],"sum_hessian":[1.1617168E3,7.010415E2,4.6067523E2,5.22282E2,1.7875954E2,6.2667356E0,4.544085E2,5.703006E1,4.6525192E2,1.2480153E1,1.6627939E2,4.1707806E2,3.7330425E1,1.7810959E1,3.9219105E1,1.0198839E2,3.6326352E2,5.927223E0,6.55293E0,1.1966124E2,4.661815E1,1.0647661E2,3.1060147E2,1.0131142E1,2.7199286E1],"tree_param":{"num_deleted":"0","num_feature":"22","num_nodes":"25","size_leaf_vector":"1"}},{"base_weights":[2.6160605E-2,1.683797E-2,3.8922882E-1,-1.5831387E-1,3.7113655E-2,1.9965598E-2,7.771978E-1,-5.812079E-1,-2.1927599E-2,2.6380327E-1,1.6719919E-2,-1.9884398E-2,2.2345135E-2,1.8135923E-3,6.250714E-2,-4.670828E-3,-4.0145546E-2,-1.9976562E-2,6.3285665E-3,2.3051756E-3,2.9318219E-2,-1.626645E-2,1.4856728E-3],"categories":[],"categories_nodes":[],"categories_segments":[],"categories_sizes":[],"default_left":[0,0,0,0,0,0,0,0,0,0,0,0,0,0,0,0,0,0,0,0,0,0,0],"id":50,"left_children":[1,3,5,7,9,11,13,15,17,19,21,-1,-1,-1,-1,-1,-1,-1,-1,-1,-1,-1,-1],"loss_changes":[3.7024288E0,3.955536E0,3.5322776E0,6.3063917E0,4.549757E0,3.0196836E0,3.777976E0,2.403163E0,5.162476E0,5.3953032E0,4.0161476E0,0E0,0E0,0E0,0E0,0E0,0E0,0E0,0E0,0E0,0E0,0E0,0E0],"parents":[2147483647,0,0,1,1,2,2,3,3,4,4,5,5,6,6,7,7,8,8,9,9,10,10],"right_children":[2,4,6,8,10,12,14,16,18,20,22,-1,-1,-1,-1,-1,-1,-1,-1,-1,-1,-1,-1],"split_conditions":[2.177974E0,-1.2669895E0,1.1333333E0,-4.0381203E1,-9.1688704E-1,-8.5262165E0,-3.272727E-1,-3.8787878E-1,2E-1,-8.3333336E-2,-8.082219E-1,-1.9884398E-2,2.2345135E-2,1.8135923E-3,6.250714E-2,-4.670828E-3,-4.0145546E-2,-1.9976562E-2,6.3285665E-3,2.3051756E-3,2.9318219E-2,-1.626645E-2,1.4856728E-3],"split_indices":[6,10,17,2,10,2,21,20,17,18,10,0,0,0,0,0,0,0,0,0,0,0,0],"split_type":[0,0,0,0,0,0,0,0,0,0,0,0,0,0,0,0,0,0,0,0,0,0,0],"sum_hessian":[1.154776E3,1.1282296E3,2.654644E1,1.1378945E2,1.0144401E3,1.4800122E1,1.1746317E1,2.6059383E1,8.773007E1,8.0721E1,9.337192E2,6.924029E0,7.8760934E0,5.407971E0,6.338346E0,9.29192E0,1.6767464E1,2.5236122E1,6.249395E1,4.980209E1,3.0918911E1,3.1883448E1,9.018357E2],"tree_param":{"num_deleted":"0","num_feature":"22","num_nodes":"23","size_leaf_vector":"1"}},{"base_weights":[-1.1739029E-2,6.0997427E-1,-2.0151202E-2,4.477173E-2,5.9010647E-3,-2.787415E-1,-3.782145E-3,1.4704689E-2,-3.7524962E-1,-8.721138E-2,3.4718156E-2,-4.012206E-2,-1.34694E-2,1.5980212E-3,-1.1399815E-2,1.0919863E-3,2.6258815E-2],"categories":[],"categories_nodes":[],"categories_segments":[],"categories_sizes":[],"default_left":[0,0,0,0,0,0,0,0,0,0,0,0,0,0,0,0,0],"id":51,"left_children":[1,3,5,-1,-1,7,9,-1,11,13,15,-1,-1,-1,-1,-1,-1],"loss_changes":[5.7053194E0,1.4271431E0,4.646793E0,0E0,0E0,3.773285E0,3.4561582E0,0E0,1.8375072E0,5.8308783E0,4.3045974E0,0E0,0E0,0E0,0E0,0E0,0E0],"parents":[2147483647,0,0,1,1,2,2,5,5,6,6,8,8,9,9,10,10],"right_children":[2,4,6,-1,-1,8,10,-1,12,14,16,-1,-1,-1,-1,-1,-1],"split_conditions":[-3.0666666E0,8.576548E-1,-6.1068E1,4.477173E-2,5.9010647E-3,3.7078905E-1,-1.3333334E-1,1.4704689E-2,-1.3760381E0,-3.7820512E-1,6.704055E-1,-4.012206E-2,-1.34694E-2,1.5980212E-3,-1.1399815E-2,1.0919863E-3,2.6258815E-2],"split_indices":[18,8,2,0,0,3,20,0,1,20,3,0,0,0,0,0,0],"split_type":[0,0,0,0,0,0,0,0,0,0,0,0,0,0,0,0,0],"sum_hessian":[1.1439302E3,1.3523301E1,1.130407E3,7.3954825E0,6.127819E0,6.452343E1,1.0658835E3,8.261005E0,5.626243E1,3.4026312E2,7.2562036E2,8.928666E0,4.7333763E1,1.8277173E2,1.574914E2,7.0906573E2,1.6554636E1],"tree_param":{"num_deleted":"0","num_feature":"22","num_nodes":"17","size_leaf_vector":"1"}},{"base_weights":[-1.189155E-2,-4.0504262E-1,-0E0,-2.1561812E-1,-5.6946557E-2,-9.764323E-3,4.051566E-1,-6.238548E-1,1.8046673E-1,-1.4712765E-2,4.022777E-2,6.746207E-2,5.030342E-2,-4.3588847E-2,-9.534344E-3,4.077491E-2,-1.3986751E-2,-2.9409784E-3,3.2514022E-3,-1.3438769E-2,1.6784636E-2],"categories":[],"categories_nodes":[],"categories_segments":[],"categories_sizes":[],"default_left":[0,0,0,0,0,0,0,0,0,0,0,0,0,0,0,0,0,0,0,0,0],"id":52,"left_children":[1,3,5,7,-1,9,11,13,15,17,-1,19,-1,-1,-1,-1,-1,-1,-1,-1,-1],"loss_changes":[5.374169E0,3.7697659E0,4.416594E0,4.9597025E0,0E0,4.0505886E0,4.7254786E0,9.061866E-1,4.7840466E0,3.8527277E0,0E0,1.7850441E0,0E0,0E0,0E0,0E0,0E0,0E0,0E0,0E0,0E0],"parents":[2147483647,0,0,1,1,2,2,3,3,5,5,6,6,7,7,8,8,9,9,11,11],"right_children":[2,4,6,8,-1,10,12,14,16,18,-1,20,-1,-1,-1,-1,-1,-1,-1,-1,-1],"split_conditions":[4.1013736E-1,5.462033E-1,2.177974E0,-2.4452875E0,-5.6946557E-2,6.9908786E-1,-3E0,-1.3269231E0,-3.5919154E-1,3.5224482E-1,4.022777E-2,3.2602487E2,5.030342E-2,-4.3588847E-2,-9.534344E-3,4.077491E-2,-1.3986751E-2,-2.9409784E-3,3.2514022E-3,-1.3438769E-2,1.6784636E-2],